<?xml version="1.0"?>
<opencv_storage>
<opencv_ml_svm>
  <format>3</format>
  <svmType>C_SVC</svmType>
  <kernel>
    <type>LINEAR</type></kernel>
  <C>1.</C>
  <term_criteria><epsilon>1.1920928955078125e-007</epsilon>
    <iterations>1000</iterations></term_criteria>
  <var_count>161</var_count>
  <class_count>2</class_count>
  <class_labels type_id="opencv-matrix">
    <rows>2</rows>
    <cols>1</cols>
    <dt>i</dt>
    <data>
      0 1</data></class_labels>
  <sv_total>1</sv_total>
  <support_vectors>
    <_>
      4.04428579e-002 1.35598322e-002 -1.51234502e-002 7.39101414e-003
      -5.47336750e-002 6.41502382e-004 6.96086325e-003 4.24140394e-002
      8.64951238e-002 -8.80730525e-002 -1.13204634e-002 2.85686590e-002
      7.89225474e-003 6.87108114e-002 -9.04161036e-002 -6.84238151e-002
      -1.30108278e-003 4.20165025e-002 -4.90607657e-002 7.21556246e-002
      4.40560542e-002 -5.97455688e-002 -2.30246522e-002 1.22436415e-002
      3.63972932e-002 2.87221782e-002 1.42828459e-002 -6.02657720e-003
      -7.04022497e-002 -9.20466259e-002 -6.40572160e-002
      -7.54844993e-002 2.27163080e-002 7.74572743e-003 2.17081327e-002
      -3.43310460e-003 -1.25835150e-001 -1.85271218e-001
      -1.65582728e-002 2.07863026e-003 5.17436629e-003 1.34173715e-002
      -6.06085546e-002 2.59713158e-002 5.89169599e-002 -1.81575958e-002
      1.06775817e-002 4.69102934e-002 1.30992413e-001 -3.52346525e-002
      -7.94160143e-002 -3.90876792e-002 1.27794240e-002 2.87454762e-002
      -9.48222168e-003 3.03833839e-002 -2.03354824e-002 2.80487034e-002
      9.58624296e-003 -1.21111162e-002 -8.70734826e-003 -4.37635407e-002
      1.73472348e-018 1.73472348e-018 1.85202882e-002 -4.77375239e-002
      2.73753947e-004 2.46535465e-002 -7.96927325e-003 5.34388348e-002
      7.80619234e-002 2.35211104e-003 -1.09416256e-002 3.40449926e-003
      6.71457872e-002 -2.23897509e-002 -6.21939749e-002 -6.21427968e-003
      2.50336397e-002 1.77427828e-002 8.98334160e-002 -6.20572045e-002
      -1.53077811e-001 4.88393381e-002 2.31046416e-002 5.14674746e-003
      2.46253647e-002 -1.71049349e-002 4.19506617e-002 -4.22707312e-002
      -1.48468539e-002 -4.26672362e-002 -3.33983228e-002
      -2.50382023e-003 7.83914849e-002 2.18220167e-002 3.59164290e-002
      -1.00523271e-001 -1.73133805e-001 1.24462275e-002 4.21165787e-002
      -3.06145772e-002 2.47576516e-002 2.21225824e-002 4.27630395e-002
      3.28301527e-002 9.72081628e-003 -2.15857774e-002 -2.73046531e-002
      -4.51220125e-002 -2.22865064e-002 -2.32914295e-002 4.04348858e-002
      7.63121760e-003 -3.07204034e-002 -8.79215263e-003 1.26899770e-002
      6.87858928e-003 -1.30109163e-002 6.58683106e-003 8.72740056e-003
      1.12543209e-002 -5.01705101e-003 -4.78894077e-002 -5.31145185e-002
      3.86478044e-002 -2.46850178e-002 4.68112938e-002 -4.86467034e-002
      -4.32361895e-003 -4.89168242e-002 -2.51162965e-002 2.39625871e-002
      2.78793480e-002 -6.15112297e-003 2.58412044e-002 -1.35095520e-002
      -5.92638962e-002 -9.36159678e-003 1.98100526e-002 2.94861849e-003
      5.94541105e-003 1.11244572e-003 2.54262462e-002 -1.08126163e-001
      -1.06753604e-002 1.91656034e-002 9.54362191e-003 1.33438746e-003
      2.14023087e-002 6.93243556e-003 -1.06993817e-001 9.17252079e-002
      -5.64807355e-002 -6.61457106e-002 5.01203956e-003 -4.63411771e-002
      6.01370409e-002 7.42240101e-002 -3.46944695e-018 1.03514977e-002</_></support_vectors>
  <uncompressed_sv_total>22</uncompressed_sv_total>
  <uncompressed_support_vectors>
    <_>
      -9.94087875e-001 -1.05851912e+000 -7.27840364e-001
      -1.21524251e+000 -3.58531356e-001 -1.03032207e+000
      -9.74746227e-001 -1.15882254e+000 1.49466082e-001 -3.57080728e-001
      -2.12010789e+000 -1.79287016e+000 -1.14892387e+000
      -9.10582721e-001 1.10126555e+000 -1.48882115e+000 -5.27059913e-001
      -1.31180418e+000 -1.83512437e+000 -1.07255650e+000 4.16099131e-001
      1.27984941e+000 -1.79222262e+000 -4.57202196e-001 1.65014040e+000
      3.08139801e-001 -8.58696163e-001 -8.35347712e-001 -1.16335607e+000
      -3.17422509e-001 -1.02429032e+000 -4.77339983e-001
      -6.18125200e-001 -1.09520769e+000 -6.97406709e-001
      -6.86149359e-001 -3.43952388e-001 -2.10978776e-001
      -5.84705532e-001 -3.81582350e-001 -6.56029046e-001
      -7.04152226e-001 -2.44929463e-001 8.65433291e-002 -2.73329735e-001
      -1.07853842e+000 -8.25023830e-001 -5.13313353e-001
      -4.51899797e-001 -3.06760192e-001 -2.24381089e-001
      -2.33622164e-001 -6.06172979e-001 -9.46908236e-001
      -6.59397244e-001 -2.56105751e-001 -5.02516448e-001
      -1.02107918e+000 -6.50644481e-001 -5.74850261e-001
      -4.22843009e-001 -2.91561216e-001 -1.82574183e-001
      -1.82574183e-001 -6.94386125e-001 -4.44690138e-001
      -2.74181366e-001 -8.68493199e-001 -8.56228173e-001
      -3.01723570e-001 -2.95080990e-001 -4.53023225e-001
      -6.39669001e-001 -5.58393180e-001 -5.55040717e-001
      -6.84886336e-001 -3.63632053e-001 -3.73510838e-001
      -4.21479017e-001 -3.22951645e-001 -2.49436453e-001
      -7.09240139e-001 -6.92621231e-001 -3.47161680e-001
      -2.24928170e-001 -4.83903170e-001 -1.10668385e+000
      -5.94834089e-001 -8.58973324e-001 -1.03152692e+000
      -8.99673998e-001 -4.82757390e-001 -1.18030235e-001 6.78010225e-001
      7.57617950e-001 -2.81487077e-001 -5.02716482e-001 -9.44083929e-001
      -6.28511250e-001 -4.61957186e-001 -7.25217164e-001
      -9.12548721e-001 -4.35190827e-001 -4.06030029e-001
      -2.07802609e-001 -8.50242376e-003 -5.29875010e-002
      -1.93870097e-001 -2.63747752e-001 -3.98302615e-001
      -7.46706367e-001 -1.05473816e+000 -9.54472125e-001
      -2.45211571e-001 -4.45383847e-001 -7.48025358e-001
      -6.36406660e-001 -9.96129930e-001 -6.97959304e-001
      -1.21881878e+000 -4.04093534e-001 -1.34122834e-001
      -6.41419351e-001 -7.10667551e-001 -6.00668907e-001
      -9.86924350e-001 -8.69465292e-001 -9.56952751e-001
      -9.44949627e-001 -8.97148609e-001 3.61391336e-001 -4.32099462e-001
      -9.76147532e-001 -3.12523603e-001 -1.16534126e+000
      -3.01601559e-001 -6.11141860e-001 -4.81007636e-001
      -6.74238682e-001 -8.86488676e-001 -4.82724369e-001
      -9.79335606e-001 -1.17450342e-001 -5.87563753e-001
      -5.54150760e-001 -5.40882587e-001 -9.26103234e-001
      -4.14180994e-001 -1.07678294e+000 -1.72918931e-001
      -6.61338389e-001 -4.75498438e-001 -7.34049499e-001 1.71145940e+000
      -6.19677722e-001 -5.58770657e-001 -5.59523404e-001
      -3.40033561e-001 -2.37994701e-001 -1.82805195e-001
      -2.22634211e-001</_>
    <_>
      -2.23823264e-001 8.96434009e-001 6.37592375e-001 2.22089720e+000
      -2.91749030e-001 8.83444846e-001 1.15435302e+000 2.90421534e+000
      1.49413496e-001 -3.58995110e-001 8.15668881e-001 6.87549889e-001
      7.04540670e-001 3.52337688e-001 6.05311692e-001 1.86877504e-001
      2.03341451e-002 -9.67955053e-001 -3.00559878e-001 1.10139871e+000
      -2.34850869e-002 1.38820601e+000 2.88363993e-001 1.02576470e+000
      -5.85155785e-001 -5.15721977e-001 1.93925107e+000 6.27709687e-001
      1.92746925e+000 5.32138050e-001 2.02842975e+000 5.83034575e-001
      -1.27332464e-001 1.19830561e+000 1.61989152e+000 1.02846050e+000
      -3.43353659e-001 -2.10978776e-001 8.10213149e-001 -3.37204427e-001
      -4.40694064e-001 1.97902131e+000 -2.58279085e-001 -3.40813160e-001
      -5.58665931e-001 9.60155487e-001 2.76407981e+000 3.82463717e+000
      2.70819831e+000 -1.34822875e-001 -2.24381089e-001 -1.85765442e-003
      6.83104455e-001 -5.15206158e-002 1.47173989e+000 -2.52574861e-001
      -2.82776624e-001 4.56700087e-001 2.78139567e+000 2.44780254e+000
      6.99550986e-001 4.15855926e-003 -1.82574183e-001 -1.82574183e-001
      -1.65199041e-001 1.29382014e+000 -2.67401695e-001 1.15017998e+000
      1.79007381e-001 -3.01723570e-001 -3.00168574e-001 -4.54411387e-001
      -4.13681537e-001 1.88185775e+000 3.84865594e+000 7.61316895e-001
      -3.59870791e-001 -3.71227294e-001 -4.21479017e-001
      -2.78882146e-001 5.74701607e-001 1.08310974e+000 -4.86860573e-001
      -3.47161680e-001 -2.24928170e-001 8.82711172e-001 8.63591731e-001
      1.02667697e-001 1.31234622e+000 2.54490471e+000 2.07530069e+000
      -1.52095497e-001 -6.09198689e-001 -6.78010225e-001
      -5.79354882e-001 -2.81487077e-001 6.32256210e-001 5.11670828e-001
      -2.25241125e-001 9.46633637e-001 7.46123433e-001 8.70346010e-001
      2.49454454e-001 -4.67778951e-001 2.82287025e+000 3.30744267e+000
      2.54982948e+000 1.58597910e+000 1.12564874e+000 1.41795731e+000
      2.01178908e+000 6.87014282e-001 1.87661016e+000 3.61670315e-001
      3.78146201e-001 6.48969769e-001 3.95933062e-001 1.04315650e+000
      9.93003070e-001 2.03491759e+000 2.19241905e+000 3.57805133e+000
      5.80437601e-001 5.43499410e-001 4.95145977e-001 1.14308202e+000
      3.11057389e-001 2.36946535e+000 9.03411984e-001 8.44343901e-001
      -5.50530732e-001 -5.34326613e-001 1.16334391e+000 -2.86416203e-001
      2.56671381e+000 -6.88150287e-001 6.47392094e-001 1.65871942e+000
      -9.16243613e-001 1.45315397e+000 -4.46699798e-001 2.92190599e+000
      -5.98145723e-001 2.92571187e-001 1.85959959e+000 -7.90167630e-001
      1.30495179e+000 -4.76899803e-001 2.88375902e+000 -7.00509250e-001
      6.07518375e-001 1.73989546e+000 -5.92020750e-001 6.68841660e-001
      -4.28453118e-001 2.98413455e-001 1.19884062e+000 -3.40033561e-001
      -2.37994701e-001 -1.82805195e-001 4.89312559e-001</_>
    <_>
      -8.93618584e-001 -3.58656615e-001 -9.63308036e-001
      -2.55529165e-001 -2.47414157e-001 -7.17227101e-001
      -6.69251084e-001 -1.07998580e-001 1.49413496e-001 -1.81375772e-001
      1.26120672e-001 9.76571143e-002 -7.31684268e-001 -9.02886569e-001
      -8.82385015e-001 -9.00269032e-001 -1.03751385e+000
      -6.24429762e-001 6.13837957e-001 -1.03865254e+000 -1.44215095e+000
      -3.34677011e-001 2.13450694e+000 8.71713161e-001 2.63559148e-002
      2.61811376e-001 -4.15633082e-001 -8.51066709e-001 -4.15291607e-001
      -4.22910869e-001 -4.12722409e-001 -5.69829941e-001
      -4.81082797e-001 -2.49878377e-001 4.34860051e-001 -5.87649703e-001
      -3.43952388e-001 -2.10978776e-001 -8.26126754e-001
      -3.78121704e-001 1.18811540e-001 -7.04152226e-001 -1.91785276e-001
      9.34360921e-001 7.20596552e-001 -8.34226191e-001 -8.25507760e-001
      -5.13313353e-001 -4.51899797e-001 -3.06760192e-001
      -2.24381089e-001 -5.64840674e-001 -6.08791173e-001 3.12651321e-002
      -5.92301846e-001 -2.56105751e-001 -4.11011428e-001
      -5.90178013e-001 3.85657489e-001 1.36347294e-001 -2.33887792e-001
      -2.91561216e-001 -1.82574183e-001 -1.82574183e-001
      -6.52608156e-001 -8.93430471e-001 -2.53842354e-001 6.97489530e-002
      -7.78840840e-001 -3.01723570e-001 -3.00168574e-001
      -4.48951304e-001 -1.50031270e-002 4.81797934e-001 -5.36753200e-002
      -6.20012045e-001 -3.63632053e-001 -3.73510838e-001
      -4.21479017e-001 -3.32802474e-001 -4.39969301e-001
      -9.74919081e-001 -6.94037795e-001 -3.47161680e-001
      -2.24928170e-001 -6.73930168e-001 -5.40485792e-002
      -3.50561321e-001 -6.54119432e-001 -3.95618170e-001 2.65748084e-001
      2.14345074e+000 3.03925180e+000 1.15104067e+000 -5.79354882e-001
      -2.81487077e-001 -8.42698812e-001 -8.58822227e-001
      -5.68091035e-001 -1.35626778e-001 9.74791944e-001 -3.18250448e-001
      -4.90974784e-001 1.40228713e+000 -5.06159008e-001 -6.36852264e-001
      -6.56025171e-001 -5.03306389e-001 -4.71225113e-001
      -5.68664074e-001 -5.60822964e-001 7.00360000e-001 -4.76862013e-001
      -3.40770334e-001 -6.44264638e-001 -9.64596629e-001
      -6.57156765e-001 2.46064901e-001 1.73935890e+000 -3.46579581e-001
      6.13001406e-001 -3.93715441e-001 -9.25211787e-001 -6.10821247e-001
      -6.15888536e-001 -3.98122281e-001 -1.95163131e-001 3.70905064e-002
      -5.14922202e-001 -8.54595363e-001 -8.19710255e-001
      -3.88849497e-001 -2.33471677e-001 -4.06246901e-001
      -7.15017617e-002 -6.01091444e-001 -7.35739768e-001
      -4.86483186e-001 4.65568118e-002 -4.24113274e-001 -5.01671433e-001
      1.34994164e-001 -5.92727602e-001 -6.29728377e-001 -5.67493439e-001
      1.46937044e-002 -3.90448421e-001 -5.24092913e-001 9.79824886e-002
      -6.57459676e-001 -6.64728045e-001 -4.81325984e-001
      -7.34049499e-001 -7.23262489e-001 1.78450406e+000 -5.58770657e-001
      -5.59523404e-001 -3.40033561e-001 7.06298590e-001 -1.82805195e-001
      -2.22634211e-001</_>
    <_>
      -5.92210650e-001 1.47012150e+000 6.21212758e-002 -7.60814697e-002
      -1.33015350e-001 9.43648517e-001 9.18664694e-001 -5.75770400e-002
      1.49413496e-001 -3.14327508e-001 -2.06784397e-001 -5.84003866e-001
      -1.77361712e-001 -3.12400579e-001 -3.38211000e-001 6.60037447e-004
      9.66816306e-001 -6.22227609e-001 1.39309406e+000 7.03306913e-001
      1.74844787e-001 -2.97577471e-001 8.32919240e-001 5.49498618e-001
      3.85739565e-001 3.12204659e-001 9.32961881e-001 -5.16289234e-001
      4.31054264e-001 -7.75610432e-002 6.25779510e-001 -2.50536054e-001
      1.07449186e+000 1.42773092e+000 4.15599525e-001 -3.88091534e-001
      -3.43952388e-001 -2.10978776e-001 1.69532180e-001 -2.37252295e-001
      1.70423627e+000 -1.28089920e-001 -2.58279085e-001 -3.38602424e-001
      8.33136976e-001 7.95086741e-001 -5.44629812e-001 -5.13207018e-001
      -4.51899797e-001 -3.06760192e-001 -2.24381089e-001 5.53922236e-001
      -3.43791723e-001 1.16999590e+000 1.06813717e+000 -2.56105751e-001
      -4.65147883e-001 -7.94270158e-001 1.50399327e-001 1.38644588e+000
      -1.07142456e-001 -2.54596233e-001 -1.82574183e-001
      -1.82574183e-001 -1.49596781e-001 2.81777114e-001 -2.75876284e-001
      -1.20549597e-001 3.11296582e+000 -3.01723570e-001 -3.00168574e-001
      -4.54781562e-001 -7.38737702e-001 -1.15808177e+000
      -7.68550634e-001 8.74010146e-001 4.81972313e+000 4.09194946e+000
      -4.21479017e-001 -3.49393338e-001 -7.46827424e-001 2.11339340e-001
      1.73011279e+000 -1.84463546e-001 -2.24928170e-001 -5.53682148e-001
      9.54781115e-001 3.74936867e+000 4.16813940e-001 -2.05866441e-001
      -1.07309377e+000 -8.64765942e-001 -7.00690806e-001
      -7.33197093e-001 -5.79354882e-001 -2.81487077e-001
      -5.42001784e-001 9.43188369e-001 2.88569999e+000 -3.83472681e-001
      -1.73051819e-001 2.48126769e+000 1.36572927e-001 1.69806445e+000
      -5.21861970e-001 -6.49294794e-001 -7.11451411e-001
      -5.64130723e-001 -5.14869928e-001 -6.38513923e-001
      -9.29184020e-001 -7.59028271e-002 2.13112056e-001 -1.64741054e-001
      2.46293277e-001 2.46036751e-003 2.40000814e-001 2.36069608e+000
      1.84431517e+000 4.06559519e-002 -9.19861317e-001 -6.79267287e-001
      -1.67778149e-001 8.96614373e-001 3.17380452e+000 3.84326756e-001
      2.55690765e+000 -1.10256858e-001 7.64764147e-003 -5.56577407e-002
      4.90245759e-001 -5.27911544e-001 1.77749467e+000 -3.28325450e-001
      8.43859091e-002 -6.92892015e-001 6.56748772e-001 -3.60545337e-001
      -2.76870370e-001 1.80331361e+000 -6.33581698e-001 4.52713370e-001
      -5.37246108e-001 3.92764419e-001 -1.48223996e-001 -7.25447595e-001
      1.90195251e+000 -5.31157553e-001 3.07629198e-001 -6.53546095e-001
      5.95541596e-001 -3.24288517e-001 -6.87047839e-001 -6.84239089e-001
      2.13390756e+000 -5.58770657e-001 -5.59523404e-001 1.58469379e-002
      -2.15571940e-001 -1.82805195e-001 -2.22634211e-001</_>
    <_>
      4.29227144e-001 2.37037286e-001 -9.06320333e-001 3.82977009e-001
      -1.24708869e-001 -3.18518192e-001 -3.38077664e-001 4.11678910e-001
      1.49413496e-001 -3.12210470e-001 2.07343197e+000 6.77778184e-001
      -3.86392742e-001 -9.86802518e-001 5.52339673e-001 -1.28915504e-001
      1.10121298e+000 -3.13067049e-001 1.45042849e+000 1.54147997e-001
      2.01844692e+000 -1.87230074e+000 3.40154171e-001 -1.76548194e-002
      -1.17804551e+000 -1.37385845e+000 1.23904765e+000 6.86967492e-001
      1.63159251e+000 2.71790594e-001 1.48345923e+000 4.46821362e-001
      -8.56018424e-001 6.60881996e-001 -1.00245285e+000 1.19574499e+000
      -3.40958714e-001 -2.10978776e-001 -9.80795741e-001 9.31393728e-002
      7.54172862e-001 -6.88359082e-001 -2.55100608e-001 3.34093213e-001
      2.49331522e+000 -3.38694036e-001 -8.04334521e-001 -5.13313353e-001
      -4.51899797e-001 -3.06760192e-001 -2.24381089e-001
      -6.25498772e-001 -5.07148802e-001 -2.93370217e-001 6.88349783e-001
      -2.56105751e-001 -5.05390942e-001 -1.15481067e+000
      -4.91902322e-001 2.94006634e+000 4.76063442e+000 6.14080608e-001
      -1.82574183e-001 -1.82574183e-001 -4.52099919e-001
      -1.03652024e+000 -2.75876284e-001 -6.49553061e-001 1.40929353e+000
      -3.01723570e-001 -3.00168574e-001 -4.54689026e-001
      -7.29802668e-001 -5.14259696e-001 1.42893910e+000 1.61839116e+000
      -3.55325907e-001 -3.73510838e-001 -3.61694753e-001
      -2.80437529e-001 -5.17686605e-001 -8.62461448e-001
      -5.74335396e-001 -3.47161680e-001 -2.24928170e-001
      -6.82926834e-001 -6.22892343e-002 1.85913074e+000 1.31885064e+000
      -7.93467999e-001 -1.06306612e+000 -8.05085540e-001
      -6.16421759e-001 -6.38591051e-001 -4.83856827e-001
      -2.81487077e-001 -9.64064419e-001 -5.55334330e-001 2.35639036e-001
      -4.70218718e-001 -8.00839841e-001 -9.63693142e-001 1.18937492e+000
      2.30351257e+000 -5.21861970e-001 -6.55516088e-001 -7.15885520e-001
      -4.89724278e-001 -3.17700624e-001 -3.46817046e-001
      -9.32948291e-001 -7.76421905e-001 1.02225983e+000 -3.49152654e-001
      -9.30313051e-001 -7.96532929e-001 -6.07444048e-002 5.95067918e-001
      -4.47230399e-001 5.15661538e-001 -8.79125774e-001 -6.79267287e-001
      -9.72968161e-001 -1.74501032e-001 -3.26715171e-001 1.03612769e+000
      -9.26454961e-001 1.02142823e+000 -6.57419086e-001 -8.02274168e-001
      -7.94474661e-001 -5.35568237e-001 4.55133379e-001 -4.43690419e-001
      6.43545032e-001 -6.87960625e-001 -6.11141860e-001 -4.82528627e-001
      -9.30335939e-001 7.09332645e-001 -7.19940007e-001 1.05158031e+000
      -5.99446058e-001 -5.92782140e-001 -4.94621664e-001
      -7.95435548e-001 5.89826643e-001 -6.14207566e-001 8.92176390e-001
      -6.98086560e-001 -5.75467408e-001 -4.70591009e-001
      -7.31078804e-001 -7.82301128e-001 2.27625179e+000 -5.58770657e-001
      -5.59523404e-001 -3.40033561e-001 -1.35906368e-001
      -1.82805195e-001 -2.22634211e-001</_>
    <_>
      -9.27108347e-001 -9.80917513e-001 -1.67839900e-001
      -5.76602459e-001 -3.56925219e-001 -6.94555342e-001
      -5.76110184e-001 -3.54200423e-001 1.49414033e-001 -3.58995467e-001
      9.66350138e-002 -3.31077158e-001 -2.24342418e+000 -1.48938572e+000
      3.63891840e-001 1.26803601e+000 1.43263853e+000 2.86140728e+000
      4.95970696e-001 1.25394297e+000 8.08471143e-001 5.08838892e-001
      -1.00337848e-001 8.16454589e-001 3.09406817e-001 1.19354725e+000
      1.25383389e+000 1.34768617e+000 1.33219349e+000 2.45407009e+000
      1.37382805e+000 2.12096715e+000 -9.32153106e-001 -8.64301503e-001
      7.09096342e-002 -6.32277191e-001 -3.43353659e-001 -2.10978776e-001
      -1.83181927e-001 2.00582817e-002 -5.70879996e-001 -7.04152226e-001
      4.91387129e+000 -3.36970687e-001 -7.87508726e-001 -1.11757362e+000
      -8.25507760e-001 -5.13313353e-001 -4.51899797e-001
      -3.06760192e-001 -2.24381089e-001 5.79575539e-001 -6.08791173e-001
      -8.21769476e-001 -6.70961499e-001 -2.49044001e-001
      -4.30973232e-001 -8.96547556e-001 -5.94685018e-001 9.57855105e-001
      -6.26943726e-003 -2.91561216e-001 -1.82574183e-001
      -1.82574183e-001 5.37675917e-001 -9.19844687e-001 -2.43672833e-001
      -9.27611172e-001 -6.21189296e-001 -3.01723570e-001
      -2.95080990e-001 -4.54318851e-001 -6.32980824e-001
      -5.45694411e-001 -2.78517634e-001 5.30192196e-001 2.40993485e-001
      -3.54100764e-001 -3.61694753e-001 -2.00593978e-001 7.07071841e-001
      -6.63470387e-001 -6.30290985e-001 -3.21129978e-001
      -2.24928170e-001 -6.94995522e-001 -9.56834078e-001
      -4.20391738e-001 -2.97434002e-001 -4.32606816e-001
      -7.12982357e-001 -5.39211869e-001 -5.12088597e-001
      -5.75520337e-001 -2.92860717e-001 1.40743542e+000 -8.20282400e-001
      8.58749092e-001 3.07539153e+000 -4.70218718e-001 -7.62128234e-001
      -8.33786249e-001 -3.84310961e-001 -4.69013929e-001
      -6.64758980e-002 1.62769568e+000 5.27879655e-001 -2.29892269e-001
      -3.65951180e-001 -4.95370954e-001 -9.22372460e-001
      -5.50604820e-001 -1.61678359e-001 -3.29035044e-001
      -2.72936583e-001 -9.51071978e-002 -6.30015254e-001
      -8.59656274e-001 -6.22157514e-001 -5.08788884e-001
      -7.21787512e-001 -6.53308034e-001 -7.77333796e-001 2.42637324e+000
      3.73388767e-001 -8.80302191e-001 -8.52900267e-001 -1.56688914e-001
      -8.42943132e-001 -8.82835269e-001 2.75456548e+000 -5.25014460e-001
      -8.57814193e-001 -4.43117887e-001 -4.02679175e-001
      -1.78505331e-001 7.29624331e-002 -4.86483186e-001 -8.67877424e-001
      -7.06465483e-001 -7.13109016e-001 -5.22742495e-002 2.72654116e-001
      -1.14463806e-001 -5.35163045e-001 -7.76997864e-001
      -7.42852867e-001 -6.12605751e-001 -2.02035472e-001 1.74273148e-001
      -1.48259267e-001 -4.74578291e-001 -7.34049499e-001 1.71145940e+000
      -6.19677722e-001 -5.58770657e-001 -5.59523404e-001
      -3.40033561e-001 -2.37994701e-001 -1.82805195e-001
      -2.22634211e-001</_>
    <_>
      -1.74760759e+000 -5.76042533e-001 -7.33609080e-001
      -1.25386763e+000 -6.70183031e-003 -7.34062552e-001
      -7.95328975e-001 -1.33296502e+000 1.67652205e-001 -2.82022953e-001
      5.25541306e-001 3.02362740e-001 1.72548187e+000 1.30468056e-001
      6.35235786e-001 -4.06348892e-002 2.23419356e+000 1.99000645e+000
      3.03689688e-001 1.24397576e+000 1.22037375e+000 -1.73613220e-001
      -1.39524803e-001 3.56307000e-001 -4.95344877e-001 -6.61295831e-001
      1.08003390e+000 -1.04987934e-001 1.04266560e+000 7.52885416e-002
      1.01538885e+000 6.74513206e-002 -7.75249481e-001 -4.12484407e-001
      -9.88349557e-001 -4.97679293e-001 -3.43952388e-001
      -2.10978776e-001 -6.48547232e-001 -2.51502097e-001
      -7.89948165e-001 2.18143836e-001 -2.58279085e-001 -3.43129188e-001
      -7.87444949e-001 -1.11750841e+000 -8.11472952e-001
      -2.02298090e-001 1.08946836e+000 1.14430749e+000 4.11924487e-003
      -8.94669116e-001 -1.23208217e-001 -7.68534839e-001
      -8.77125189e-002 -2.56105751e-001 -4.79520410e-001
      -1.03711462e+000 -8.96781981e-001 -4.05589789e-001
      -2.28364497e-001 -2.91561216e-001 -1.82574183e-001
      -1.82574183e-001 -6.57121241e-001 -4.98273313e-001
      -2.65706778e-001 -9.01721597e-001 1.48656577e-001 -3.01723570e-001
      -3.00168574e-001 -4.54781562e-001 -7.35811591e-001
      -1.04400074e+000 -6.89908743e-001 -4.34315264e-001 3.20607215e-001
      1.99109364e+000 -4.06532973e-001 -3.35394800e-001 -6.15794361e-001
      -6.11085474e-001 -2.16998965e-001 1.66964456e-001 -1.82125479e-001
      -4.65690434e-001 -5.61174154e-001 -1.79864675e-001
      -7.33305752e-001 -1.07546937e+000 -1.15891886e+000
      -9.14768457e-001 -7.06308782e-001 -7.09545612e-001
      -5.79354882e-001 -2.81487077e-001 -6.68122470e-001
      -7.19003975e-001 1.78029016e-001 -4.70218718e-001 -7.39021301e-001
      -7.13469028e-001 1.63352732e-002 -4.69013929e-001 -4.59050089e-001
      -2.51132548e-001 -2.70258427e-001 -3.43864024e-001
      -3.76039922e-001 -5.45708776e-001 -1.21921229e+000
      -1.15779209e+000 -7.80148208e-001 -3.32387984e-001
      -7.50628054e-001 -6.42391622e-001 -3.78299832e-001
      -4.83927161e-001 -4.76384908e-001 -1.20347154e+000
      -8.28691304e-001 -6.79267287e-001 -7.22418845e-001
      -4.05040443e-001 -4.94131327e-001 -3.57156366e-001
      -7.20988095e-001 -9.23608422e-001 -1.05959105e+000
      -6.01596832e-001 -8.32328022e-001 -5.34119666e-001
      -4.19257343e-001 -4.37678844e-001 -1.14366353e+000
      -6.97444141e-001 -4.56934124e-001 -2.62289435e-001
      -8.79012048e-001 -2.40382493e-001 -6.83196366e-001
      -8.52744102e-001 -5.97929001e-001 -6.08959138e-001 5.03773391e-002
      -7.73799479e-001 -3.03745091e-001 -5.88865399e-001
      -9.91107106e-001 -6.99204683e-001 -4.69371527e-001
      -1.50688499e-001 2.09100723e+000 -6.76756144e-001 -6.19677722e-001
      -5.58770657e-001 -5.59523404e-001 -3.40033561e-001
      -2.37994701e-001 -1.82805195e-001 -2.22634211e-001</_>
    <_>
      8.59570652e-002 -8.83263946e-001 -9.81313348e-001 -8.91412139e-001
      -2.42243692e-001 -1.05182648e+000 -1.03292155e+000
      -8.42277527e-001 2.37788033e+000 1.81792521e+000 1.27633893e+000
      -6.06775343e-001 -3.36275786e-001 -1.17396283e+000 1.86618054e+000
      -1.71252346e+000 8.55171502e-001 -9.04339135e-001 1.75560784e+000
      -3.59681845e-001 6.09308064e-001 -7.62712002e-001 6.48089170e-001
      -8.91709924e-001 -4.66617435e-001 -1.00958741e+000
      -2.02588215e-001 -3.39583904e-001 1.55748531e-001 -8.00271809e-001
      -1.49381787e-001 -5.90040445e-001 -9.86661077e-001
      -7.16595650e-001 -6.63200855e-001 -3.80112499e-001
      -3.43952388e-001 -2.10978776e-001 -9.23926830e-001
      -2.09363416e-001 -4.63887662e-001 -7.03931332e-001
      -2.58279085e-001 -3.38707715e-001 -4.50270027e-001
      -1.56551406e-001 -3.05614322e-001 -4.78980482e-001
      -4.51899797e-001 -3.06760192e-001 -2.24381089e-001
      -6.09196901e-001 -5.99440455e-001 -9.52455759e-001
      -3.76245588e-001 -2.56105751e-001 -4.41752642e-001
      -8.71980429e-001 -7.67852783e-001 7.93367997e-002 3.28326643e-001
      -8.36332515e-002 -1.82574183e-001 -1.82574183e-001
      -7.46608496e-001 -8.21281850e-001 -2.75876284e-001
      -9.39944386e-001 -4.07007575e-001 -3.01723570e-001
      -2.95080990e-001 -2.60809869e-001 -4.04746532e-001
      -7.87943065e-001 -4.16374445e-001 -1.58400148e-001
      -3.63632053e-001 -3.73510838e-001 -4.21479017e-001
      -3.49393338e-001 -7.50838637e-001 -7.55724967e-001
      -5.47420084e-001 -3.44992369e-001 -2.24928170e-001
      -7.57972121e-001 -9.46966946e-001 -7.02763582e-003
      -7.92795956e-001 -3.98355335e-001 -4.77479458e-001
      -6.34915590e-001 -4.79986072e-001 -1.81328326e-001
      -1.01864599e-001 -2.81487077e-001 -9.29647326e-001
      -8.25375497e-001 -1.30676385e-002 -4.70218718e-001
      -7.97238767e-001 -6.44296169e-001 -3.85712117e-001
      -4.68396425e-001 -4.90456015e-001 -6.11967087e-001
      -6.82629764e-001 -4.25356805e-001 -2.89627582e-001
      -3.25993270e-001 -8.46190751e-001 -8.47216249e-001
      -5.17767072e-001 -3.37417394e-001 -8.16082478e-001
      -9.32221413e-001 -6.87012374e-001 -5.70076168e-001
      -6.94072008e-001 -8.22397292e-001 -8.42916429e-001
      -6.79267287e-001 -9.77479041e-001 -4.95551527e-001
      -6.46327853e-001 -7.00495064e-001 -8.94692719e-001
      -6.87330604e-001 -7.12544560e-001 -8.91442597e-001
      -7.70003796e-001 -4.63347048e-001 -7.76046753e-001
      -4.22621280e-001 -7.56263793e-001 -5.80227673e-001
      -7.79443800e-001 -4.84049618e-001 -8.59526396e-001
      -5.99275470e-001 -6.54290438e-001 -4.62616891e-001
      -5.96195221e-001 -6.54254854e-001 -5.67493439e-001
      -6.50568008e-001 -6.89539433e-001 -5.66685855e-001
      -5.94711423e-001 -6.08819246e-001 -7.22577929e-001
      -4.81325984e-001 -7.34049499e-001 -5.99801838e-001
      -6.19677722e-001 -5.58770657e-001 -5.59523404e-001
      -3.40033561e-001 5.18248320e+000 -1.82805195e-001 -2.22634211e-001</_>
    <_>
      -1.09455717e+000 -6.76808834e-001 1.95608890e+000 3.36857021e-001
      -2.50100315e-001 5.84985554e-001 7.45544434e-001 5.77614009e-001
      1.49413496e-001 -3.58990967e-001 -3.48824263e-001 1.41859961e+000
      -2.11807981e-001 -1.90264776e-001 -9.07957435e-001 9.85136628e-002
      -1.54375565e+000 6.42455816e-002 -4.96580988e-001 2.01125577e-001
      4.09436285e-001 1.63938418e-001 1.48430660e-001 8.99241984e-001
      -5.21772087e-001 1.27223969e-001 -5.29545665e-001 2.33597144e-001
      -1.43466756e-001 9.02326331e-002 -2.87394941e-001 1.36827022e-001
      -1.84047267e-001 -7.89245486e-001 -4.39336628e-001 6.84316933e-001
      1.29645750e-001 4.62869793e-001 2.19698167e+000 -3.81582350e-001
      -2.89379716e-001 -6.31592214e-001 -2.56372005e-001
      -2.09590137e-001 2.25099951e-001 9.17340577e-001 3.18209380e-001
      1.00213662e-001 -2.51587570e-001 -3.04680288e-001 -2.24319115e-001
      2.46515799e+000 2.69241542e-001 -4.03786778e-001 -6.38558745e-001
      2.04955220e+000 1.20342147e+000 6.27179503e-001 -3.53776813e-001
      -6.65763438e-001 -4.14412707e-001 -2.59216875e-001
      -1.82574183e-001 -1.82574183e-001 -1.07045189e-001 3.50431514e+000
      6.19040847e-001 -3.95040214e-001 -8.41700077e-001 3.55006671e+000
      4.95023775e+000 2.10747719e+000 1.10824585e+000 -4.61105138e-001
      -8.51675689e-001 -7.52151608e-001 -3.63632053e-001
      -3.73510838e-001 -3.91586900e-001 -2.71623641e-001 2.14358902e+000
      1.99725282e+000 -2.97744960e-001 -2.47373492e-001 -2.24928170e-001
      -3.56852800e-001 -6.25039220e-001 -5.27411580e-001
      -7.97539130e-002 3.72931808e-001 9.82136905e-001 7.08163023e-001
      3.50666434e-001 -4.73030396e-002 -6.36653742e-003 1.40743542e+000
      2.38379359e+000 4.77127522e-001 -5.75116634e-001 -4.49564904e-001
      -6.80203676e-001 -4.57107574e-001 -2.98752189e-001
      -4.68396425e-001 -3.64832282e-001 -3.94222111e-001
      -2.81343669e-001 -7.16309547e-002 -5.16865728e-003 1.49346396e-001
      5.90148449e-001 2.69672453e-001 2.86725223e-001 -3.49152654e-001
      4.01118189e-001 2.35579443e+000 -4.54646230e-001 -5.58419049e-001
      -4.68610376e-001 2.07486212e-001 1.11497509e+000 7.35512376e-002
      2.27220941e+000 -3.03164750e-001 -5.70229590e-001 -4.95333314e-001
      -7.42872179e-001 -4.49067563e-001 1.20982170e+000 2.26494598e+000
      -3.94911319e-001 -1.26452655e-001 -6.80819929e-001 1.12349832e+000
      -2.05361500e-001 1.75158286e+000 1.62190902e+000 -1.64946169e-001
      -4.54329073e-001 -5.56185246e-001 1.33630037e+000 -7.52984047e-001
      -1.25469148e-001 2.28370285e+000 2.78230041e-001 -3.18877846e-001
      -6.03781104e-001 1.45822394e+000 -6.98772490e-001 1.06005085e+000
      1.93027043e+000 -1.18176833e-001 -2.01561004e-001 -4.44778413e-001
      -2.86479890e-001 1.15955269e+000 3.81374145e+000 -3.40033561e-001
      -2.37994701e-001 -1.82805195e-001 -1.51186854e-001</_>
    <_>
      -4.33134288e-001 -7.94876277e-001 -7.76175082e-001
      -7.77410418e-002 -3.66745383e-001 -8.91642630e-001
      -8.05673778e-001 2.92703211e-001 1.49413496e-001 -2.80053437e-001
      -1.89037704e+000 -9.07242715e-001 2.70806521e-001 2.10638475e+000
      3.56721282e-001 2.21947742e+000 -8.65713477e-001 -1.56276315e-001
      -2.56064475e-001 1.96602881e-001 7.55856782e-002 9.87476632e-002
      -3.05205822e-001 1.78533509e-001 7.77373612e-001 8.46545875e-001
      9.55042958e-001 1.61797357e+000 4.54282939e-001 1.87105930e+000
      6.24189496e-001 1.79465568e+000 8.03275853e-002 -1.05106246e+000
      6.87667727e-001 -6.03167534e-001 -3.43952388e-001 -2.10978776e-001
      -6.34782732e-001 -3.81582350e-001 -5.95503330e-001
      -3.86081010e-001 -2.58151948e-001 -3.41602713e-001
      -7.57986784e-001 -5.94540834e-001 4.92555767e-001 1.31026065e+000
      3.67556834e+000 -2.99480587e-001 -2.24381089e-001 -3.00093323e-001
      -6.08697653e-001 -6.89589620e-001 -5.18565655e-001
      -2.45513141e-001 5.73905289e-001 8.50956142e-001 -9.39457834e-001
      -7.85181880e-001 -4.55692142e-001 -2.91561216e-001
      -1.82574183e-001 -1.82574183e-001 -7.46995330e-001
      -4.66576219e-001 -2.33503312e-001 -5.54047048e-001
      -7.79560030e-001 -1.09134063e-001 1.98416516e-001 1.13687837e+000
      9.40257549e-001 -5.31330168e-001 -8.43207479e-001 -7.47210324e-001
      -3.63632053e-001 -3.73510838e-001 -4.21479017e-001
      -3.46801013e-001 -2.02638909e-001 -8.49946260e-001
      -6.92621231e-001 -3.47161680e-001 -2.24928170e-001
      -5.13306916e-001 -7.14927435e-001 -5.51223516e-001
      -5.03749549e-001 -4.28316116e-001 1.22368586e+000 1.79907846e+000
      1.11310112e+000 2.05768228e+000 3.14506936e+000 -2.81487077e-001
      -6.30874991e-001 -8.34422588e-001 -3.76994342e-001
      -3.42165023e-001 -6.82004213e-001 -4.98662412e-001
      -4.14873898e-001 -4.68705177e-001 -1.44990727e-001
      -1.95140988e-001 -2.01529875e-001 -2.50560731e-001
      -2.44228199e-001 -8.33224505e-002 9.63887036e-001 7.98022568e-001
      -5.41760981e-001 -3.25682104e-001 -7.59753942e-001
      -6.93440557e-001 -4.94745582e-001 -7.15221643e-001
      -6.04664803e-001 -2.85190970e-001 1.56931639e+000 -5.62450625e-002
      -6.93098187e-001 -7.20814526e-001 -6.15888536e-001
      -8.41439962e-001 -5.15673220e-001 -3.46130282e-001 3.17618608e-001
      -6.53821290e-001 -8.12063098e-001 -5.04734576e-001
      -6.65493369e-001 4.24896151e-001 -3.01263213e-001 -6.97254479e-001
      -8.72063160e-001 6.55475199e-001 -5.96817970e-001 -6.23086333e-001
      9.37405646e-001 -8.87569785e-001 -5.97062111e-001 -8.40969086e-001
      4.94792730e-001 -5.94126105e-001 -6.17011011e-001 8.58349562e-001
      -7.25725353e-001 -6.97527468e-001 -8.35453093e-001 6.90934241e-001
      -7.34049499e-001 1.70146561e+000 -6.10218704e-001 -5.58770657e-001
      -5.59523404e-001 -3.40033561e-001 -2.33307138e-001
      -1.82805195e-001 -2.22634211e-001</_>
    <_>
      -3.49409878e-001 -1.42646089e-001 -8.56237590e-001 1.08824074e+000
      3.47660947e+000 -5.28265715e-001 -1.12738490e+000 -9.45300043e-001
      -3.36196971e+000 -7.64272690e-001 -2.47241661e-001
      -1.56765831e+000 1.31421733e+000 6.14777565e-001 -3.52861673e-001
      -2.63413131e-001 -1.14400804e+000 -2.13621035e-001
      -1.71226490e+000 -1.80666828e+000 -5.51644981e-001
      -1.46188915e-001 -1.82280183e+000 -1.95344865e+000
      -1.91385731e-001 -7.54992664e-001 -7.99125135e-001
      -8.22665036e-001 -7.73560047e-001 -8.95140767e-001
      -7.89531589e-001 -8.30311120e-001 -5.43093920e-001 4.42377254e-002
      -1.29118550e+000 1.96186888e+000 3.69031334e+000 -2.10978776e-001
      -7.85014510e-001 -2.30330959e-001 -7.73744464e-001 8.56826365e-001
      -2.58279085e-001 -3.43129188e-001 -7.87508726e-001
      -1.11757362e+000 -8.24721336e-001 -4.94286776e-001 9.30876285e-002
      4.51823044e+000 5.18637323e+000 -8.79757345e-001 -2.65432686e-001
      -2.82637943e-002 -1.96713895e-001 -2.38451391e-001 4.42526102e+000
      7.59934425e-001 -1.11496973e+000 -7.84507155e-001 -4.53657240e-001
      -2.91561216e-001 -1.82574183e-001 -1.82574183e-001
      -7.08054185e-001 -6.50419414e-001 -2.70791531e-001 3.14170986e-001
      -7.05624878e-001 -3.01723570e-001 -3.00168574e-001 3.76817465e+000
      1.76363552e+000 -6.98080003e-001 -7.76333869e-001 -7.05448508e-001
      -3.27273041e-001 -3.25556517e-001 -4.21479017e-001
      -3.49393338e-001 -6.32006347e-001 -5.80333948e-001
      -6.39498830e-001 -3.47161680e-001 -2.24928170e-001 1.47583234e+000
      -7.01915860e-001 -5.98044693e-001 2.21226358e+000 -5.37950456e-001
      -1.18811715e+000 -9.52404797e-001 -7.31188238e-001
      -7.56848633e-001 -5.79354882e-001 -2.81487077e-001
      -7.13181734e-001 -8.18247497e-001 -7.25464702e-001
      -4.70218718e-001 -1.36740953e-001 3.88565511e-001 -3.89915615e-001
      -4.69013929e-001 -4.11941171e-001 -1.95140988e-001 1.92462134e+000
      3.75085211e+000 4.04020119e+000 4.35755348e+000 2.46153021e+000
      -4.54798281e-001 -7.38964617e-001 -3.49152654e-001
      -2.47447118e-001 -9.72994268e-001 4.68427092e-001 -9.91438687e-001
      -6.97959304e-001 1.26072657e+000 -9.34301972e-001 -6.79267287e-001
      -7.51347244e-001 -8.50695908e-001 -6.46327853e-001
      -2.02593073e-001 -2.32821926e-002 -9.57467437e-001 3.25385427e+000
      -7.34285653e-001 -8.44181120e-001 4.55869704e-001 -3.25664312e-001
      -6.94842562e-002 1.22158098e+000 -6.40163600e-001 -5.71583152e-001
      -4.86483186e-001 9.19931948e-001 -5.99028289e-001 2.58881903e+000
      -9.60253477e-001 -5.46998680e-001 -5.28595805e-001
      -5.67493439e-001 8.75432491e-001 -5.22590220e-001 2.09802151e+000
      -3.17835093e-001 -6.45346165e-001 -5.38746238e-001
      -4.81325984e-001 -7.34049499e-001 4.49797511e-001 8.73011410e-001
      -5.58770657e-001 -5.59523404e-001 -3.40033561e-001
      -2.37994701e-001 -1.82805195e-001 -2.22634211e-001</_>
    <_>
      7.89242148e-001 -1.42718479e-001 -4.63791460e-001 -5.03982842e-001
      -3.62169623e-001 -3.26733887e-001 -1.33154005e-001
      -2.55703747e-001 1.49413496e-001 -3.58994603e-001 -4.76484746e-001
      1.09617853e+000 -9.36367691e-001 -2.44359046e-001 9.23817009e-002
      1.23163342e-001 -8.03209841e-002 4.41763461e-001 4.46115047e-001
      -5.55616558e-001 -1.47632301e+000 2.04060376e-001 1.40076685e+000
      1.00269461e+000 -5.66542387e-001 -6.81208789e-001 -4.27412502e-002
      -1.91246629e-001 1.37399197e-001 -1.21827453e-001 6.39016703e-002
      -1.09779418e-001 4.64752465e-001 -3.78519446e-001 2.30922922e-001
      -6.83095336e-001 -3.43952388e-001 -2.10978776e-001
      -3.11136991e-001 -3.81582350e-001 3.48841101e-001 -7.04152226e-001
      -2.55990565e-001 -1.35056719e-001 1.18586993e+000 -5.57851672e-001
      -8.25386763e-001 -5.13313353e-001 -4.51899797e-001
      -3.06760192e-001 -2.24381089e-001 1.51683167e-001 -6.08791173e-001
      -2.58591682e-001 5.03711551e-002 -2.38451391e-001 -5.70482463e-002
      -2.12795138e-002 -4.63892519e-001 -6.97895110e-001
      -4.55692142e-001 -2.91561216e-001 -1.82574183e-001
      -1.82574183e-001 -7.28169501e-001 5.08411378e-002 -2.43672833e-001
      -7.35610425e-002 -1.60892799e-001 -3.01723570e-001
      -3.00168574e-001 -4.29979831e-001 -8.22507218e-002
      -8.31944719e-002 -1.39496475e-002 -6.78271413e-001
      -3.58146846e-001 -3.73510838e-001 -3.61694753e-001 3.94603461e-001
      -1.28932789e-001 -5.80691516e-001 -6.28166080e-001
      -3.23299289e-001 -2.24928170e-001 -6.45623624e-001 1.58256724e-001
      -1.34113684e-001 -3.71358246e-001 7.81323388e-002 -8.54254544e-001
      -7.96482921e-001 -6.94270313e-001 -7.48964787e-001
      -5.79354882e-001 -2.81487077e-001 -2.53531933e-001
      -7.17084885e-001 -6.39752269e-001 9.79679704e-001 1.28958619e+000
      -1.35664850e-001 -4.77926433e-001 -4.69013929e-001
      -4.27644163e-001 -4.99983966e-001 -4.96397555e-001
      -4.34805244e-001 -3.88321877e-001 -3.70428264e-001 5.67383587e-001
      3.14217210e-001 -7.53329158e-001 9.51116905e-002 -9.76571739e-002
      -5.58746517e-001 -4.55871969e-001 3.55528176e-001 1.40311003e+000
      -4.60927069e-001 -5.09704173e-001 -1.34122834e-001
      -3.69590491e-001 -6.16909444e-001 -3.26715171e-001 4.39774655e-002
      -3.61876994e-001 -6.41780853e-001 -6.68936893e-002
      -3.42215329e-001 -6.77473366e-001 -3.61533731e-001
      -1.84333399e-002 -4.20617431e-001 -3.34990710e-001
      -5.91418266e-001 -2.59733021e-001 2.33218278e-004 -3.88912916e-001
      2.07129680e-002 -3.93921286e-001 -2.41104767e-001 -5.63903213e-001
      -2.87818968e-001 1.26584824e-002 -3.89242083e-001 6.68584136e-003
      -5.07745802e-001 -1.97157130e-001 -6.22050941e-001
      -2.01363683e-001 -5.83676398e-002 6.46148622e-001 -7.82580137e-001
      9.50624704e-001 -5.58770657e-001 -5.59523404e-001 -3.40033561e-001
      -2.37994701e-001 -1.82805195e-001 -2.22634211e-001</_>
    <_>
      -2.28846725e-002 -5.31161010e-001 -1.20204464e-001
      -2.51005501e-001 -2.92091817e-001 -3.91157657e-001
      -2.77295440e-001 -4.13907655e-002 1.49480328e-001 4.54348862e-001
      3.06267053e-001 1.12143159e+000 4.87907976e-002 -3.38575929e-001
      1.21774244e+000 1.29433334e+000 -1.10714972e-001 6.21068403e-002
      1.10823965e+000 4.41704303e-001 -6.68808460e-001 8.55246246e-001
      8.49342465e-001 8.22088778e-001 -8.19277287e-001 -4.86024767e-001
      3.77396911e-001 5.30324519e-001 1.33323717e+000 1.05529606e+000
      1.20313537e+000 9.90679920e-001 -5.55231333e-001 -4.47374821e-001
      5.53966641e-001 -6.76409483e-001 -3.43952388e-001 -2.10978776e-001
      -1.30279334e-002 -2.51502097e-001 -2.77385771e-001
      -4.26060796e-001 -2.58024812e-001 -3.30601662e-001
      -1.09141879e-001 7.32851923e-001 -2.41919216e-002 -4.66437846e-001
      -4.51554418e-001 -3.06760192e-001 -2.24381089e-001 8.68548229e-002
      -1.93245113e-001 -7.55412877e-001 -3.08073908e-002
      -2.56105751e-001 -4.93733227e-001 -7.31978655e-001
      -1.26705207e-002 5.71769178e-001 1.28763771e+000 6.04839385e-001
      -1.82574183e-001 -1.82574183e-001 -6.15988016e-001 5.12864053e-001
      -9.62148905e-002 -4.24497247e-001 -4.50016528e-001
      -3.01723570e-001 -3.00168574e-001 -4.53856140e-001
      -5.39137244e-001 -1.32185459e-001 1.37605667e-001 5.65339088e-001
      -1.82463810e-001 -3.73510838e-001 -2.42126241e-001
      -3.27617824e-001 -5.85710227e-001 4.19984967e-001 2.43394867e-001
      -3.42823088e-001 -2.24928170e-001 -6.51109338e-001
      -5.65511346e-001 2.22797468e-001 -6.38041019e-001 6.69728637e-001
      1.28442701e-002 -1.74677297e-001 -3.15460682e-001 -9.46060792e-002
      -1.97362661e-001 -2.81487077e-001 -6.39139593e-001 8.40106666e-001
      1.68853569e+000 2.48534352e-001 -1.10933222e-001 -2.99071282e-001
      -4.11721289e-001 -4.69013929e-001 -5.21861970e-001
      -5.31090379e-001 -5.03048718e-001 -3.77524078e-001
      -3.21867734e-001 -2.69916624e-001 2.12466344e-001 1.47704706e-001
      -2.63264507e-001 -7.75646418e-002 5.77971004e-002 -1.67592272e-001
      -5.07353246e-001 -2.24342838e-001 4.45092395e-002 -1.73195973e-001
      -6.83207333e-001 -6.01389527e-001 -1.41399384e-001 3.16856429e-002
      -2.35397264e-001 -2.27726221e-001 -8.04421008e-001
      -4.22447249e-002 -4.01402801e-001 -4.23114896e-002
      -3.60116810e-001 -4.35824335e-001 -4.07976389e-001
      -4.11685944e-001 -6.37992844e-002 -5.83831429e-001 2.53700525e-001
      -1.34830594e-001 -8.96931946e-001 -1.80814162e-001
      -6.60761893e-001 2.75705814e-001 -5.97495556e-001 -1.66752145e-001
      7.63443351e-001 -7.70224810e-001 -2.56416589e-001 -5.98024726e-001
      1.58016577e-001 -6.85600281e-001 1.15003087e-001 3.93115103e-001
      2.89727002e-001 -4.12551194e-001 -5.53092241e-001 1.14876175e+000
      1.60163248e+000 -3.40033561e-001 -2.37994701e-001 -1.82805195e-001
      -2.22634211e-001</_>
    <_>
      2.19916120e-001 -1.15282826e-001 -6.58965647e-001 8.98755342e-002
      -1.82746395e-001 -4.09968466e-001 -3.86957318e-001 1.87876940e-001
      1.49413496e-001 -3.58989537e-001 1.10799566e-001 -3.79441082e-001
      1.09609589e-001 2.47653157e-001 -1.09205723e+000 -1.52745172e-001
      8.06681812e-001 7.12058723e-001 7.95981646e-001 -3.15164998e-002
      2.41792902e-001 -1.10815120e+000 -4.61325377e-001 -1.09380841e+000
      -2.27403253e-001 -1.95353448e-001 -4.47177403e-002
      -7.74694383e-001 -2.04736382e-001 -5.78368366e-001
      -1.70330137e-001 -6.51503444e-001 -5.09771228e-001 6.52460158e-002
      2.81407267e-001 -1.12292394e-001 -3.43353659e-001 -2.10978776e-001
      -6.23916090e-001 -1.33025229e-001 4.71655913e-002 -2.42838517e-001
      -2.58279085e-001 -3.39023530e-001 -7.03151226e-001 7.21708357e-001
      1.04215217e+000 3.75004038e-002 -4.46028560e-001 -3.06760192e-001
      -2.24381089e-001 -4.89397168e-001 -3.43230695e-001 3.18134815e-001
      -5.25206506e-001 -2.56105751e-001 2.07326218e-001 7.03501999e-001
      -2.19738573e-001 -6.41221941e-001 -4.42901343e-001
      -2.91561216e-001 -1.82574183e-001 -1.82574183e-001
      -3.06521893e-001 -7.79773712e-001 -2.57232189e-001
      -4.72199291e-001 4.57342893e-001 -3.01723570e-001 -3.00168574e-001
      -4.54596490e-001 -5.42951584e-001 5.50912678e-001 1.51304170e-001
      3.41068387e-001 6.83413863e-001 -3.26698303e-001 -4.21479017e-001
      -2.94954538e-001 -5.80863297e-001 -6.99406743e-001 1.31837904e-001
      3.64371538e-001 -2.12087363e-001 -6.56595111e-001 2.77073961e-002
      3.02794784e-001 6.85798824e-001 -3.81488502e-001 -9.20466661e-001
      -8.22828352e-001 -6.80626750e-001 -7.56848633e-001
      -5.79354882e-001 -2.81487077e-001 -8.90814841e-001
      -9.42082629e-002 9.39605355e-001 -4.20649558e-001 -7.26117432e-001
      6.98628604e-001 -3.98235053e-001 -4.69013929e-001 -5.21861970e-001
      -6.55516088e-001 -7.22536683e-001 -5.34013808e-001
      -4.67935294e-001 -3.78134698e-001 9.02170837e-002 3.81918132e-001
      2.33206466e-001 -3.45799744e-001 -8.43460083e-001 -5.14548302e-001
      7.96909183e-002 -3.06795686e-001 -6.94072008e-001 2.15747908e-001
      -9.31068957e-001 -6.79267287e-001 -6.23964250e-001
      -4.61863548e-001 -6.46327853e-001 -1.33615330e-001
      -6.05154634e-002 -1.49446547e-001 3.62109244e-001 -6.22970164e-001
      -4.21293974e-001 -5.11977375e-001 6.76131174e-002 -4.29835171e-001
      3.17006588e-001 -6.49267793e-001 -3.00002307e-001 -4.82832819e-001
      -9.57581028e-002 -8.68890062e-002 -3.10439229e-001 3.67318481e-001
      -5.36162496e-001 -3.14119697e-001 -5.28491676e-001
      -4.41544890e-001 5.84243312e-002 -5.22737503e-001 4.90414500e-001
      -5.86455822e-001 -3.20792139e-001 -4.77645427e-001 6.70387149e-001
      -7.82122314e-001 2.11733337e-002 3.78059596e-001 1.75196815e+000
      -3.40033561e-001 -2.37994701e-001 -1.82805195e-001
      -2.22634211e-001</_>
    <_>
      2.61778325e-001 -3.13775063e-001 -4.91586089e-001 4.78054315e-001
      -1.78797677e-001 -4.47096318e-001 -4.27957356e-001 6.04429901e-001
      1.49457321e-001 7.06303358e-001 4.46172118e-001 -1.47096109e+000
      -5.09925067e-001 -5.88889241e-001 -5.77580836e-003
      -1.01471245e+000 2.87728291e-002 -6.84202850e-001 -2.88165510e-001
      -1.96920168e+000 1.15352893e+000 -6.93496048e-001 -4.90704536e-001
      -1.08494580e+000 3.62637222e-001 -2.13714927e-001 -2.22682476e-001
      -1.96676522e-001 -3.20172340e-001 -3.41600716e-001
      -2.78153598e-001 -3.03737342e-001 -9.85337019e-001 1.09206103e-002
      -1.07984591e+000 1.34379709e+000 -1.15236223e-001 -2.10978776e-001
      -9.54262972e-001 9.99426305e-001 1.47803530e-001 -6.85598075e-001
      -2.57897675e-001 -2.78807253e-001 9.24572110e-001 1.27973592e+000
      5.20921834e-002 -4.26365137e-001 -4.48100775e-001 -3.06760192e-001
      -2.24381089e-001 3.15043032e-002 -5.49601078e-001 -3.77329469e-001
      -9.27504003e-002 -2.52574861e-001 -1.56777546e-001 1.02313161e+000
      5.98315477e-001 -7.03882873e-001 -4.50168848e-001 -2.91561216e-001
      -1.82574183e-001 -1.82574183e-001 -1.22002721e-001
      -7.06719458e-001 -2.75876284e-001 -1.60607085e-001
      -3.75218332e-001 -3.01723570e-001 -3.00168574e-001
      -4.44416672e-001 3.79338413e-001 1.99621630e+000 -8.35007057e-002
      -7.42428422e-001 -3.63475323e-001 -3.73510838e-001
      -4.21479017e-001 -3.44208688e-001 -2.62138635e-001
      -2.30624616e-001 -6.41977906e-001 -3.47161680e-001
      -2.24928170e-001 -6.70199811e-001 9.27652046e-002 -5.74767888e-001
      -3.47971439e-001 1.59762573e+000 1.15511429e+000 -3.85440648e-001
      -4.32634860e-001 -5.43984950e-001 -4.83856827e-001
      -2.81487077e-001 -8.09979856e-001 5.55261254e-001 -7.01577663e-001
      -4.70218718e-001 -7.78333068e-001 -5.76913416e-001 2.51556218e-001
      -4.69013929e-001 -5.06159008e-001 -6.43073559e-001
      -6.91497982e-001 -5.02715886e-001 -4.58723813e-001
      -5.28164327e-001 -4.52913791e-001 9.77704048e-001 6.94542050e-001
      -3.49152654e-001 -7.66991675e-001 -3.29578727e-001
      -2.25712135e-002 -5.32545924e-001 -6.66861117e-001 5.12384832e-001
      -9.84693319e-002 5.40817916e-001 -4.45981055e-001 -4.21681494e-001
      -6.31108224e-001 -6.31406605e-001 2.06044361e-001 1.32086918e-001
      6.95984185e-001 -6.01016581e-001 2.24125087e-001 -2.55788654e-001
      -2.42029652e-001 -1.30916819e-001 5.87789595e-001 -1.10261850e-002
      -4.70436186e-001 -4.86178994e-001 5.56037240e-002 -3.84483457e-001
      1.97320178e-001 3.78927052e-001 1.96497072e-003 -3.58267337e-001
      -5.65697312e-001 -3.83616686e-002 -3.26267481e-001 6.05843700e-002
      4.99561399e-001 6.17106110e-002 -4.96149719e-001 -4.81019288e-001
      2.49363050e-001 -7.82580137e-001 -6.19677722e-001 2.26483941e+000
      -5.59523404e-001 -1.89565405e-001 -2.37994701e-001
      -1.82805195e-001 -2.22634211e-001</_>
    <_>
      -9.77342963e-001 -1.08675110e+000 -1.08366406e+000
      -7.12232113e-001 -3.38064432e-001 -1.23059678e+000
      -1.21557105e+000 -5.45229852e-001 1.49454027e-001 4.21937799e+000
      -1.04217637e+000 -1.41418815e+000 -1.42434883e+000
      -1.18288946e+000 5.11090219e-001 -1.08222353e+000 -5.86001694e-001
      -9.52291548e-001 1.53003311e+000 -1.22263372e+000 -6.43279135e-001
      -1.12051773e+000 6.26705885e-001 -1.41169190e+000 3.46292615e+000
      3.22049409e-001 -1.99263051e-001 -1.41534781e+000 -1.42768860e+000
      -1.52075577e+000 -9.92033541e-001 -1.71946132e+000
      -7.99524307e-001 -1.05522716e+000 -1.67057946e-001
      -5.85035861e-001 -3.43952388e-001 -2.10978776e-001
      -9.53357399e-001 -3.81582350e-001 -6.87006772e-001
      -7.04152226e-001 1.21231481e-001 1.22570443e+000 -5.99983871e-001
      -1.11757362e+000 -8.25507760e-001 -5.13313353e-001
      -4.51899797e-001 -3.06760192e-001 -2.24381089e-001
      -7.44540334e-001 -6.08791173e-001 -9.38160241e-001
      -7.13439941e-001 -2.56105751e-001 -3.94243479e-001 2.42056400e-002
      -6.78413808e-001 -7.72868931e-001 -4.49587435e-001
      -2.91561216e-001 -1.82574183e-001 -1.82574183e-001
      -7.13211954e-001 -1.03712392e+000 -2.75876284e-001
      -9.14462507e-001 -8.47309887e-001 -3.01723570e-001
      -4.07008231e-002 1.64457333e+000 -1.77296072e-001 -1.00944340e+000
      -8.91774952e-001 -7.53825307e-001 -3.63632053e-001
      -3.73510838e-001 -4.21479017e-001 -3.41097891e-001
      -6.05432034e-001 -1.04929495e+000 -6.94037795e-001
      -3.47161680e-001 -2.24928170e-001 -7.64335573e-001
      -1.06591427e+000 -4.57848698e-001 -9.09328043e-001
      -9.22188461e-001 2.34485343e-001 1.63912416e+000 2.12754059e+000
      2.90913701e+000 3.33606553e+000 -2.81487077e-001 -9.67234433e-001
      -9.93431568e-001 -3.30625325e-001 -4.70218718e-001
      -7.61528075e-001 -8.55139077e-001 -4.97893065e-001
      -2.42086649e-001 -3.33426356e-001 -4.00443405e-001
      -5.27436256e-001 -4.34805244e-001 -3.95340145e-001
      -4.33391511e-001 -6.46504998e-001 -3.75519246e-001
      -4.95921850e-001 -3.49152654e-001 -7.74544120e-001
      -1.07542372e+000 -7.46636093e-001 -8.72592807e-001
      -6.97959304e-001 -7.75375664e-001 2.34527424e-001 -2.63919145e-001
      -1.04121959e+000 -7.07014620e-001 -6.46327853e-001
      -1.00021052e+000 -9.10497844e-001 -9.31916952e-001
      -6.14299290e-002 -1.08312571e+000 -4.59912062e-001
      -5.34740508e-001 -9.67900753e-001 2.34947577e-002 -7.88299084e-001
      -6.46612406e-001 -8.75734806e-001 -4.86483186e-001
      -7.04511046e-001 -9.04285073e-001 3.39333177e-001 -1.10408938e+000
      -3.65600139e-001 -8.87517214e-001 -5.67493439e-001
      -5.59508443e-001 -9.49019372e-001 4.18619633e-001 -1.12202954e+000
      -4.87311333e-001 -9.28555310e-001 -4.81325984e-001
      -4.24634337e-001 -6.97417855e-001 -6.19677722e-001 3.10552049e+000
      -5.59523404e-001 -3.40033561e-001 -2.37994701e-001
      -1.82805195e-001 -2.22634211e-001</_>
    <_>
      6.72027946e-001 -1.90423220e-001 -6.11679852e-001 -9.16626930e-001
      -4.03378487e-001 -4.32281107e-001 -2.17499241e-001
      -7.41996706e-001 1.49413496e-001 -3.58989656e-001 -1.36395001e+000
      -2.75778443e-001 -4.33777332e-001 -1.37309775e-001 8.99470329e-001
      8.33562434e-001 -3.76946002e-001 2.95177072e-001 -2.89114386e-001
      1.29064727e+000 -1.09004426e+000 9.05948579e-001 5.34821630e-001
      9.32873130e-001 4.51156259e-001 2.07562232e+000 2.52182871e-001
      1.23023319e+000 -4.28989381e-002 5.22044539e-001 -1.54832024e-002
      5.36244571e-001 1.25456679e+000 -7.70735979e-001 -3.21738631e-001
      -6.73823178e-001 -3.43952388e-001 -2.10978776e-001
      -4.64357108e-001 -3.81582350e-001 2.24374130e-001 -6.03871405e-001
      -2.55863428e-001 -3.31443846e-001 -3.63107026e-001
      -2.60493249e-001 -3.46024960e-001 -5.00558078e-001
      -4.51899797e-001 -3.06760192e-001 -2.24381089e-001
      -6.31476119e-002 -6.08043075e-001 -5.45141339e-001 2.82457054e-001
      -2.49044001e-001 -3.18308681e-001 -3.82179797e-001
      -9.30622101e-001 -5.46513677e-001 -2.08887562e-001
      -2.82319963e-001 -1.82574183e-001 -1.82574183e-001
      -7.02638507e-001 -2.34432727e-001 -2.25028723e-001
      -4.75695394e-002 -2.93947250e-001 -3.01723570e-001
      -2.84905761e-001 -4.29609656e-001 3.17619033e-002 -6.43745780e-001
      -6.56160593e-001 -6.16186500e-001 -3.57206553e-001
      -3.71227294e-001 1.61118579e+000 -2.86659122e-001 -7.14570582e-001
      -2.72639781e-001 -1.79459155e-001 -3.14622074e-001
      -2.24928170e-001 1.08120814e-001 -2.39246458e-001 -2.48624921e-001
      -7.33634651e-001 -8.02567184e-001 -1.88151598e-001
      -3.58019888e-001 -5.08075774e-001 -6.14939511e-001
      -6.36653742e-003 -2.81487077e-001 -4.18032229e-001
      -8.16328466e-001 -4.66922194e-001 3.68326545e-001 9.60687697e-001
      -1.86425701e-001 -3.91929805e-001 -4.69013929e-001
      -3.80535245e-001 -5.68418086e-001 -5.56257904e-001
      -4.38348383e-001 -4.06086862e-001 -2.67457128e-001 4.60729152e-001
      -1.04492772e+000 -7.51299798e-001 1.18582264e-001 -3.75523828e-002
      -7.68356562e-001 -3.33209932e-001 1.60058036e-001 7.17201307e-002
      -9.58393276e-001 -2.98870867e-003 -2.37959877e-001
      -6.23081684e-001 -2.64200360e-001 3.85564491e-002 -3.18072677e-001
      3.49232890e-002 -9.79598939e-001 -3.70669127e-001 -5.35735965e-001
      -5.59324980e-001 -4.52172399e-001 -3.56270708e-002
      -4.13575292e-001 -7.88357437e-001 -6.61786079e-001
      -3.01778883e-001 -2.93621808e-001 4.25552912e-002 -2.37910777e-001
      -2.42524654e-001 -8.42268825e-001 -5.80807745e-001
      -3.14745903e-001 -3.35278720e-001 -9.66849551e-002
      -1.67665780e-001 -3.73641729e-001 -7.66733885e-001
      -6.56714201e-001 -2.64637053e-001 -3.48518908e-001 5.31868041e-002
      -7.82580137e-001 -6.19677722e-001 2.36983705e+000 -5.59523404e-001
      1.73108232e+000 -2.37994701e-001 -1.82805195e-001 -2.09207058e-001</_>
    <_>
      1.34182322e+000 -6.26208544e-001 6.70893431e-001 6.10471927e-002
      -2.27828488e-001 -4.37632538e-002 3.80245633e-002 2.24545851e-001
      1.49466082e-001 -2.69144595e-001 4.99305159e-001 1.23768914e+000
      -1.69960603e-001 1.63808703e-001 -4.40096736e-001 -1.96874797e-001
      1.57154644e+000 1.67073238e+000 -1.71253359e+000 2.21415901e+000
      9.41821098e-001 1.72313762e+000 -1.70164549e+000 1.89726591e-001
      -2.34805226e-001 -2.26002976e-001 1.63442492e-001 3.84968728e-001
      5.00242889e-001 2.60477841e-001 4.04642373e-001 3.85310888e-001
      -5.97381234e-001 -5.37886322e-001 7.40572751e-001 -5.02191603e-001
      -3.39761257e-001 -2.10978776e-001 8.37742031e-001 -3.16847563e-001
      -2.78894961e-001 -5.53068399e-001 -2.57897675e-001
      -3.27232927e-001 6.24379277e-001 1.09974384e+000 -3.34772885e-001
      -5.09805620e-001 -4.51554418e-001 -3.06413531e-001
      -2.24381089e-001 2.06275463e-001 5.66874981e-001 -4.87852722e-001
      -4.51813757e-001 -2.56105751e-001 -3.47532809e-001
      -1.55370787e-001 4.51955318e-001 1.82900250e-001 2.42540985e-002
      -1.57563195e-001 -1.82574183e-001 -1.82574183e-001 4.37486231e-001
      6.49312496e-001 -2.13164285e-001 -8.59115899e-001 5.10161929e-003
      -3.01723570e-001 -3.00168574e-001 -4.54781562e-001
      -7.35916138e-001 -5.96767187e-001 6.05409682e-001 7.16207743e-001
      1.50321591e+000 1.87234962e+000 -2.72018373e-001 -1.93853945e-001
      -2.35397190e-001 3.69030356e-001 9.41422760e-001 5.04790878e+000
      5.23455572e+000 3.50591719e-001 -9.06197369e-001 -4.70691085e-001
      4.69733924e-002 -3.69208276e-001 1.89950675e-001 1.09097815e+000
      5.25625110e-001 -2.44399041e-001 1.23510826e+000 4.78528023e+000
      1.02216601e+000 -3.31350982e-001 -1.76061839e-001 -2.34765142e-001
      -5.04951239e-001 -7.68449247e-001 -6.73844591e-002
      -4.68705177e-001 -1.44990727e-001 9.72594321e-002 2.90655285e-001
      8.01345482e-002 1.04930326e-001 5.65330088e-001 8.56874108e-001
      -6.63734317e-001 9.26650316e-002 -1.14446968e-001 2.05698937e-001
      7.85542309e-001 -1.96014091e-001 -8.49989355e-001 -5.85228503e-001
      4.75173593e-002 1.20079994e-001 6.96573436e-001 8.74036312e-001
      -4.80939895e-001 -5.09351015e-001 -5.20687878e-001
      -5.79957604e-001 -1.02499798e-001 2.47272655e-001 5.31190515e-001
      8.42014432e-001 -4.28788453e-001 -5.01569390e-001 -2.73247987e-001
      2.05787480e-001 5.31431735e-001 3.88602644e-001 4.90295798e-001
      -7.62272120e-001 -3.40898871e-001 -2.58523583e-001 2.90101677e-001
      -1.57327682e-001 7.81326294e-001 2.39741400e-001 -6.51320577e-001
      -3.98244619e-001 -2.69972920e-001 2.69944012e-001 1.95518404e-001
      6.23901665e-001 3.44654322e-001 -6.43844843e-001 -2.56537884e-001
      1.61797082e+000 -5.58770657e-001 -5.55032492e-001 -3.40033561e-001
      -2.37994701e-001 -1.82805195e-001 -2.22634211e-001</_>
    <_>
      -8.14917609e-002 1.30986542e-001 2.54760742e-001 -9.35069546e-002
      -3.52419555e-001 2.12091058e-001 4.94332254e-001 2.47113198e-001
      1.49413496e-001 -1.90623865e-001 -5.41906297e-001 -3.99426073e-001
      1.62798300e-001 -7.77818263e-002 2.41568387e-001 3.11683863e-001
      1.91688702e-001 -4.29946870e-001 -2.71144629e-001 -4.63666953e-002
      6.69095933e-001 -5.52086234e-002 3.36019456e-001 3.01593840e-001
      4.66602631e-002 4.52970773e-001 1.50901437e-001 1.33216131e+000
      3.94582093e-001 1.48086548e+000 3.32343608e-001 1.43644810e+000
      6.67778254e-001 -1.13740936e-001 -9.57967699e-001 6.71000242e-001
      -3.39162529e-001 -2.10978776e-001 4.33320671e-001 -3.81582350e-001
      1.03481531e-001 5.45801334e-002 -2.57770509e-001 -3.36865425e-001
      -7.39687026e-001 -1.71605065e-001 9.31264997e-001 9.25796509e-001
      -1.56957299e-001 -2.98440635e-001 -2.24381089e-001 1.13712466e+000
      -5.69237590e-001 -1.54576078e-001 3.71650428e-001 -2.56105751e-001
      -1.99575707e-001 6.10424519e-001 -2.16552898e-001 -6.39450908e-001
      -4.48133945e-001 -2.91561216e-001 -1.82574183e-001
      -1.82574183e-001 -6.87036276e-001 1.24355757e+000 -2.55537271e-001
      3.97822857e-002 2.24030122e-001 -3.01723570e-001 -3.00168574e-001
      -4.24519747e-001 6.03444815e-001 5.06501615e-001 -4.05104309e-001
      -6.81299925e-001 -3.62064868e-001 -3.73510838e-001
      -3.46748710e-001 -3.23988557e-001 -7.05879569e-001 3.89590979e-001
      2.07824135e+000 -3.47161680e-001 -2.24928170e-001 -5.84270768e-002
      3.81079704e-001 -3.88285816e-001 -3.34779799e-001 3.18632483e-001
      2.64715821e-001 5.70817385e-003 -3.01014543e-001 -5.83404183e-001
      -5.79354882e-001 -2.81487077e-001 6.80598676e-001 -7.13520885e-001
      -7.00172544e-001 -4.16518778e-001 -5.60167730e-001 1.81047007e-001
      2.05667987e-001 -3.99855137e-001 -4.27644163e-001 -4.93762672e-001
      -4.01064396e-001 -3.66304070e-001 -4.01261806e-001
      -5.18654227e-001 -6.18004084e-001 2.46604636e-001 1.73480332e-001
      -3.08917403e-001 -3.62621754e-001 4.69304025e-001 -1.82180688e-001
      5.63650548e-001 -1.69290602e-001 -2.50155777e-001 1.16605616e+000
      7.48492002e-001 4.39031720e-001 -6.18532956e-001 -6.46327853e-001
      -2.72146557e-002 3.10449511e-001 -6.30016565e-001 6.65591955e-001
      4.83511508e-001 -7.98680604e-001 -5.21620661e-002 1.59416750e-001
      -2.39525914e-001 2.01402307e-002 -5.70175171e-001 -6.36014044e-001
      3.43340921e+000 9.90985036e-002 1.01126082e-001 7.41823157e-003
      -1.13318726e-001 -5.60652375e-001 -7.16145039e-001 3.17129207e+000
      2.50413846e-002 1.31031469e-001 -1.55912578e-001 9.22717806e-003
      -6.13664627e-001 -6.46310925e-001 3.65716362e+000 -7.34049499e-001
      1.49088085e+000 -4.89608288e-001 -4.74911451e-001 3.94334681e-002
      -3.40033561e-001 -2.36348256e-001 -1.82805195e-001
      -1.85631856e-001</_>
    <_>
      9.81808305e-001 -8.73853266e-001 -1.02449119e+000 1.14019595e-001
      -2.63164341e-001 -1.06816816e+000 -1.04544854e+000 3.43135476e-001
      1.49413496e-001 -3.58989030e-001 -4.92912769e-001 -5.58895171e-001
      2.96429455e-001 -5.93400240e-001 7.09851027e-001 -5.51891446e-001
      -9.17542398e-001 -1.79602754e+000 5.36703110e-001 -1.47945261e+000
      -1.66654468e+000 -1.01967943e+000 -5.66505969e-001
      -1.74879849e+000 1.75413713e-001 -2.94028282e-001 2.69216388e-001
      -1.07319927e+000 -9.55611765e-002 -1.18684185e+000
      -2.13987660e-002 -1.21530545e+000 -6.13711596e-001
      -8.54676604e-001 9.67489243e-001 -6.25838935e-001 -3.36767584e-001
      -2.10978776e-001 -8.89968455e-001 -3.81582350e-001
      -6.35615528e-001 -4.43289638e-001 -2.58279085e-001
      -3.43076527e-001 -7.21769810e-001 8.78370523e-001 1.08716047e+000
      -1.69347063e-001 -4.22198325e-001 -3.06760192e-001
      -2.24381089e-001 -8.82790267e-001 -4.41039234e-001
      -8.66469502e-001 -4.45859909e-001 -2.56105751e-001
      -5.07546842e-001 -1.13157988e+000 2.05632687e+000 7.31466059e-003
      -4.42029238e-001 -2.91561216e-001 -1.82574183e-001
      -1.82574183e-001 -5.52031696e-001 -1.12014019e+000
      -2.75876284e-001 -6.00729823e-001 -8.57235074e-001
      -3.01723570e-001 -3.00168574e-001 -4.51449990e-001 4.00029987e-001
      1.93182027e+000 -8.83244514e-001 -7.54144073e-001 -3.63632053e-001
      -3.73510838e-001 -4.21479017e-001 -3.49393338e-001
      -4.83925551e-001 -1.05126154e+000 -6.94037795e-001
      -3.47161680e-001 -2.24928170e-001 -7.58191526e-001
      -7.16879189e-001 -5.21525502e-001 5.97630553e-002 1.72305420e-001
      2.13692665e-001 -2.01829195e-001 -2.75332540e-001 -4.25727367e-001
      -5.79354882e-001 -2.81487077e-001 -9.55120504e-001
      -7.62320220e-001 -6.81905925e-001 -4.53695685e-001 3.79113518e-002
      -8.11026990e-001 -4.98243362e-001 -4.64382768e-001 1.77077127e+000
      2.23738170e+000 2.94003034e+000 2.82549596e+000 2.84600019e+000
      1.76884627e+000 -4.19393837e-001 -1.16079712e+000 -3.62502992e-001
      -3.20652694e-001 -3.67027342e-001 -1.14304698e+000
      -4.83451217e-001 -8.72166336e-001 -6.97959304e-001 1.78584278e-001
      -4.51295018e-001 -6.01389527e-001 -9.40999866e-001
      -8.37707758e-001 -6.46327853e-001 -8.25275004e-001
      -6.93329096e-001 6.27141714e-001 -6.24392629e-001 -1.00875425e+000
      -4.86294717e-001 -5.35361290e-001 -7.33568072e-001
      -4.13460791e-001 3.34979057e-001 -6.96116447e-001 -7.61914790e-001
      -4.86483186e-001 -8.32211673e-001 -5.95897436e-001
      -6.49544716e-001 6.83843136e-001 -5.90126932e-001 -7.06334472e-001
      -5.67493439e-001 -7.84523427e-001 -6.17877245e-001
      -5.72723627e-001 5.55022061e-001 -6.77959442e-001 -7.33876765e-001
      -4.81325984e-001 -5.99521160e-001 1.13753939e+000 -4.91385013e-001
      -2.39529796e-002 -1.48482427e-001 -3.40033561e-001
      -2.37994701e-001 -1.82805195e-001 -2.22634211e-001</_>
    <_>
      -1.09455717e+000 -8.86955798e-001 -1.04424465e+000
      -7.92801559e-001 -1.32642508e-001 -1.08644021e+000
      -1.09274805e+000 -8.11154127e-001 1.49413496e-001 1.86707735e+000
      3.42512876e-001 -1.04037392e+000 1.77473083e-001 -8.48259211e-001
      1.35948968e+000 -1.16002882e+000 1.28713524e+000 -8.48922193e-001
      8.94494772e-001 -1.28314662e+000 3.24536592e-001 -7.63411582e-001
      -3.12074900e-001 -1.41582596e+000 -4.27701384e-001
      -1.19250178e+000 7.18011379e-001 -1.01035798e+000 8.73082161e-001
      -9.19231653e-001 8.55904460e-001 -9.14193273e-001 -9.48262751e-001
      -7.32791483e-001 -7.87113786e-001 -2.76660323e-001 1.58935785e+000
      5.25200796e+000 -9.33254063e-001 -3.34761590e-001 -6.00189686e-001
      -5.14524341e-001 -2.58279085e-001 -3.41707975e-001
      -7.25212991e-001 -6.13374233e-001 1.68786898e-001 2.04062566e-001
      -1.78369984e-001 -3.05720240e-001 -2.24381089e-001
      -7.65012443e-001 -5.51377714e-001 -9.46268141e-001
      -3.83000910e-001 -2.56105751e-001 -4.14684385e-001
      -3.93949419e-001 -4.64553714e-001 -6.27981305e-001
      -4.19063896e-001 -2.86940604e-001 -1.82574183e-001
      -1.82574183e-001 -7.39258707e-001 -9.38410163e-001
      -2.75876284e-001 -1.00925505e+000 -3.09338421e-001
      -3.01723570e-001 -3.00168574e-001 -4.24242139e-001
      -3.37185442e-001 -2.92134792e-001 -2.91157633e-001
      -5.84068179e-001 -3.18496704e-001 -3.10713530e-001
      -4.21479017e-001 -3.49393338e-001 -7.70059049e-001
      -8.58349323e-001 -5.59107006e-001 -3.38484466e-001
      -2.24928170e-001 -7.57972121e-001 -7.85732031e-001
      -4.05141413e-001 -9.68270123e-001 -1.02841985e+000 5.62154353e-001
      1.39932704e+000 1.34102893e+000 7.41080940e-001 -1.01864599e-001
      -2.81487077e-001 -9.35308039e-001 -8.91446471e-001
      -6.14460051e-001 -4.70218718e-001 -7.75632262e-001
      -5.90466678e-001 -4.28973138e-001 -9.57417041e-002 3.10395330e-001
      1.71914861e-001 -1.30584255e-001 -1.63162693e-001 -1.46849811e-001
      3.62175286e-001 5.12353480e-001 -8.59413028e-001 -9.42813337e-001
      -3.44123274e-001 -8.21746826e-001 -1.00923681e+000
      -5.50692081e-001 -7.91561604e-001 -6.94072008e-001
      -9.38061059e-001 8.29395413e-001 7.48492002e-001 -9.73164320e-001
      -8.05237412e-001 -6.46327853e-001 -7.14888513e-001
      -8.75088274e-001 -7.90194333e-001 -3.96329314e-001
      -9.49276388e-001 -8.16269040e-001 -5.35568237e-001
      -7.48972416e-001 -4.40713257e-001 -6.39559567e-001
      -6.98961496e-001 -7.89511144e-001 -4.86483186e-001
      -9.29292023e-001 -5.66319287e-001 -4.55975592e-001
      -5.18730044e-001 -5.99446058e-001 -7.28042960e-001
      -5.66723704e-001 -7.95435548e-001 -6.28980935e-001
      -5.40234745e-001 -5.02022922e-001 -7.01441050e-001
      -7.47661293e-001 -4.81325984e-001 -5.90294838e-001
      -7.82580137e-001 2.18727517e+000 -5.58770657e-001 -5.59523404e-001
      -3.40033561e-001 -2.37994701e-001 -1.82805195e-001
      -2.22634211e-001</_>
    <_>
      -2.57313043e-001 2.23643756e+000 1.01692772e+000 4.00081277e-002
      -2.08812088e-001 1.90933132e+000 2.06798220e+000 1.71779975e-001
      2.77518779e-001 -3.58989149e-001 2.38684848e-001 1.00297546e+000
      2.40820125e-001 6.51861012e-001 -1.21835923e+000 -1.88119739e-001
      -1.87144548e-001 -1.16738808e+000 6.43618643e-001 7.68127620e-001
      -3.84627402e-001 1.08098827e-001 5.83699346e-001 3.43032390e-001
      -5.46310842e-001 -2.35626161e-001 8.37893784e-001 8.57993424e-001
      7.88124681e-001 3.43982160e-001 7.84760892e-001 4.71308708e-001
      1.93999946e+000 2.04446793e+000 9.02550697e-001 -6.50656462e-001
      -3.43952388e-001 -2.10978776e-001 1.22296560e+000 -3.81582350e-001
      1.27722001e+000 1.63477552e+000 -2.58279085e-001 -3.42918634e-001
      -6.44617438e-001 1.52026844e+000 4.33815181e-001 -4.82062995e-001
      -4.51899797e-001 -3.06760192e-001 -2.24381089e-001 2.17741108e+000
      -5.23606062e-001 3.19152570e+000 1.10596702e-001 -2.56105751e-001
      -4.99641925e-001 3.78938466e-001 6.33117318e-001 -7.12063372e-001
      -4.55401450e-001 -2.91561216e-001 -1.82574183e-001
      -1.82574183e-001 1.19632292e+000 3.55133265e-001 -2.75876284e-001
      3.19739270e+000 -4.66817357e-002 -3.01723570e-001 -3.00168574e-001
      -4.54781562e-001 -7.38737702e-001 -1.12352443e+000 1.45415676e+000
      1.21527779e+000 -2.31203705e-001 -3.73510838e-001 -4.21479017e-001
      -1.18158095e-001 2.65017247e+000 -3.11973155e-001 -6.94037795e-001
      -3.47161680e-001 -2.24928170e-001 2.87176251e-001 2.13601398e+000
      2.64171338e+000 -3.73404592e-001 9.00093913e-001 -2.06304640e-002
      -1.17147498e-001 1.51951890e-002 7.41080940e-001 8.53115976e-001
      -2.81487077e-001 9.74729240e-001 7.39218235e-001 4.56243247e-001
      -1.60411373e-001 1.33129871e+000 3.51988292e+000 -9.14670229e-002
      2.50357914e+000 -5.21861970e-001 -5.62196851e-001 -6.40505850e-001
      -4.70236868e-001 -4.20342714e-001 -4.83729303e-001
      -5.38595855e-001 3.64312343e-002 8.17225352e-002 6.66117147e-002
      1.05723596e+000 9.09518301e-001 6.33289754e-001 3.30947256e+000
      7.17006922e-001 1.12434693e-001 -5.41171789e-001 -2.37959877e-001
      9.64253724e-001 7.19245136e-001 3.88608426e-001 2.39730334e+000
      1.40267611e+000 6.58059657e-001 -8.00306261e-001 1.08776796e+000
      1.46506563e-001 -3.80571991e-001 2.54568887e+000 -1.19065426e-001
      1.04283974e-001 -6.95926785e-001 6.11149728e-001 3.08449435e+000
      -4.89994764e-001 2.77642775e+000 -4.24552947e-001 4.07473683e-001
      -5.97929001e-001 2.63035059e-001 3.04556251e+000 -5.26583970e-001
      2.65235758e+000 -3.22094828e-001 2.84670502e-001 -6.99391067e-001
      7.22992241e-001 2.75573158e+000 1.53871810e+000 -7.82580137e-001
      -6.19677722e-001 2.39472091e-002 -1.89647794e-001 3.34518766e+000
      -2.37994701e-001 -1.82805195e-001 -2.22634211e-001</_></uncompressed_support_vectors>
  <decision_functions>
    <_>
      <sv_count>1</sv_count>
      <rho>-6.8632260087266694e-001</rho>
      <alpha>
        1.</alpha>
      <index>
        0</index></_></decision_functions></opencv_ml_svm>
</opencv_storage>
