<?xml version="1.0"?>
<opencv_storage>
<opencv_ml_svm>
  <format>3</format>
  <svmType>C_SVC</svmType>
  <kernel>
    <type>LINEAR</type></kernel>
  <C>10.</C>
  <term_criteria><epsilon>1.1920928955078125e-007</epsilon>
    <iterations>1000</iterations></term_criteria>
  <var_count>18</var_count>
  <class_count>2</class_count>
  <class_labels type_id="opencv-matrix">
    <rows>2</rows>
    <cols>1</cols>
    <dt>i</dt>
    <data>
      0 1</data></class_labels>
  <class_weights type_id="opencv-matrix">
    <rows>2</rows>
    <cols>1</cols>
    <dt>f</dt>
    <data>
      1. 1.50000000e+000</data></class_weights>
  <sv_total>1</sv_total>
  <support_vectors>
    <_>
      -1.05596067e-004 1.95344031e+000 -2.01967359e-002 1.31614375e+000
      -1.09480051e-002 -1.85060443e-003 1.01001477e+000 -1.28786755e+000
      -2.59729493e-002 6.29800272e+000 -9.28480268e-001 5.05417764e-001
      -1.54817030e-001 -1.25003374e+000 -1.56654790e-002 1.03975250e-003
      2.20217509e-003 -4.04702663e+000</_></support_vectors>
  <uncompressed_sv_total>23</uncompressed_sv_total>
  <uncompressed_support_vectors>
    <_>
      1.57900649e-005 2.71220896e-002 6.21641113e-004 1.41360283e-001
      1.05585357e-004 1.16372685e-004 7.90095236e-003 3.05490359e-003
      8.76011982e-005 4.37155850e-002 4.06140648e-002 5.60356474e+000
      3.26894894e-002 6.67933899e-004 1.82215645e-005 5.16840082e-005
      7.60725598e-005 2.03885332e-001</_>
    <_>
      1.09960047e-005 -3.81440073e-001 2.27517448e-004 1.65494651e-001
      4.53165994e-005 7.73965075e-005 3.62221338e-003 5.46610309e-003
      1.83958735e-004 2.63289623e-002 1.23834414e-002 5.94948435e+000
      3.11849676e-002 2.74153333e-003 5.70109114e-005 0. 4.93115112e-005
      5.27032018e-002</_>
    <_>
      1.05537620e-005 5.93599398e-003 3.79495963e-004 1.55612081e-001
      5.06650249e-005 2.26702759e-005 1.62999593e-002 2.73974612e-003
      5.07212026e-005 6.02192953e-002 1.63225979e-002 7.17198277e+000
      4.07064334e-002 1.24190934e-003 5.64583024e-005 1.15912153e-004
      3.80021156e-005 1.34768978e-001</_>
    <_>
      1.02157746e-005 7.98538402e-002 1.63250937e-004 1.19147643e-001
      6.07620896e-005 4.69685365e-005 5.45595866e-003 4.14696243e-003
      1.19081131e-004 3.05171460e-002 1.13194166e-002 5.22323227e+000
      3.17518674e-002 1.57273724e-003 6.35037286e-005 2.76534192e-005
      3.07389928e-005 8.19072947e-002</_>
    <_>
      1.37110337e-005 7.94480070e-002 3.29626375e-004 1.46874249e-001
      5.35306935e-005 6.15185636e-005 6.24831766e-003 3.04703461e-003
      1.07808759e-004 4.49607223e-002 1.69791244e-002 5.83176136e+000
      3.00597027e-002 1.29208469e-003 4.00796052e-005 3.07811897e-005
      1.14875344e-004 1.06311962e-001</_>
    <_>
      8.70365511e-006 1.66953895e-002 2.13574313e-004 1.64210156e-001
      1.04086130e-005 1.22608326e-005 2.28652209e-002 1.28971937e-003
      4.28666281e-005 1.28860235e-001 1.23834414e-002 7.00897932e+000
      3.75895128e-002 2.74470868e-003 6.87194042e-005 7.09995802e-005
      3.68893052e-005 5.92458248e-002</_>
    <_>
      9.26130087e-006 4.98903543e-002 1.94746608e-004 1.31928384e-001
      1.22405727e-005 9.18764272e-006 1.70696806e-002 1.72253617e-003
      4.88546539e-005 7.81718865e-002 6.92748278e-003 5.52749872e+000
      2.94825472e-002 3.12363636e-003 9.63481943e-005 3.68141555e-005
      9.41027029e-005 4.22667004e-002</_>
    <_>
      1.13599035e-005 1.60970762e-002 2.44876428e-004 1.64378569e-001
      1.61715288e-005 1.76726080e-005 1.14552490e-002 1.90583745e-003
      6.33857198e-005 7.83756375e-002 8.94233864e-003 6.19398546e+000
      3.17907073e-002 2.65315245e-003 8.04828014e-005 7.23441044e-005
      2.52282352e-005 5.59858344e-002</_>
    <_>
      1.36761228e-005 -6.83852583e-002 4.52776672e-004 1.48366556e-001
      1.46677950e-004 2.23288967e-004 3.80332395e-003 5.95422089e-003
      1.69698629e-004 2.26841103e-002 3.75125445e-002 5.75569773e+000
      3.06999180e-002 9.36680415e-004 1.85274093e-005 0. 2.45633400e-005
      1.46971300e-001</_>
    <_>
      2.75055372e-005 -1.40944213e-001 2.26388336e-004 1.39711574e-001
      9.25977838e-006 6.99185694e-006 1.66395418e-002 1.30239374e-003
      4.79075206e-005 1.04387656e-001 5.13901515e-003 5.60356236e+000
      2.73507480e-002 3.10753356e-003 1.20487864e-004 0. 2.77641848e-005
      4.26968373e-002</_>
    <_>
      1.30730286e-005 8.13531354e-002 2.08719721e-004 1.31832182e-001
      4.45916412e-005 2.84717989e-005 8.87442287e-003 5.62735647e-003
      7.50011386e-005 2.24124454e-002 1.11609446e-002 5.22323132e+000
      2.93910094e-002 2.86617666e-003 5.96166501e-005 2.88189131e-005
      3.27726557e-005 4.41457257e-002</_>
    <_>
      1.08462555e-005 2.37216987e-003 1.86684600e-004 1.65851563e-001
      1.29520467e-005 1.61071821e-005 1.61641259e-002 1.41263369e-003
      5.28618875e-005 1.12854585e-001 1.15005272e-002 6.60148430e+000
      3.36753130e-002 2.40728911e-003 6.62899838e-005 1.89295781e-004
      2.44104358e-005 6.45659491e-002</_>
    <_>
      1.06293110e-005 8.94413516e-002 3.39582504e-004 1.68769002e-001
      3.44843211e-005 1.85841163e-005 1.36512164e-002 3.33943847e-003
      6.50171423e-005 4.33533639e-002 1.12062227e-002 5.86798620e+000
      2.89501511e-002 2.17701495e-003 5.84851514e-005 3.10979085e-005
      2.36721844e-005 6.60374761e-002</_>
    <_>
      1.28408474e-005 4.47737575e-002 2.26388336e-004 1.68657109e-001
      1.18673561e-005 1.35684304e-005 1.37870489e-002 1.44904735e-003
      5.82306238e-005 1.09436117e-001 8.26317444e-003 6.60148382e+000
      2.98871808e-002 2.70045851e-003 8.18826884e-005 4.39384348e-005
      1.82606396e-004 5.73668033e-002</_>
    <_>
      9.18436035e-006 5.14901802e-002 1.63250937e-004 1.65203601e-001
      2.01082075e-005 3.96647338e-005 5.47859771e-003 3.19117773e-003
      1.22547513e-004 4.49607223e-002 9.59886517e-003 5.86798668e+000
      3.18633281e-002 3.58667900e-003 7.51493644e-005 4.05510036e-005
      7.50461622e-005 3.99348997e-002</_>
    <_>
      1.23121172e-005 1.27444476e-001 2.43827686e-004 1.35547638e-001
      3.56770062e-004 4.75415494e-004 9.05553345e-004 1.60072446e-002
      6.43753097e-004 7.99150765e-003 1.90166198e-002 5.37536430e+000
      2.98605096e-002 1.03806925e-003 3.55482262e-005 2.33474511e-005
      2.56911590e-005 1.25939831e-001</_>
    <_>
      1.07322239e-005 1.28681481e-001 2.71665980e-004 1.44754484e-001
      6.04013667e-006 2.90357775e-006 3.38903330e-002 1.78141531e-003
      3.12620068e-005 7.67909214e-002 4.34665568e-003 5.67963076e+000
      2.54204962e-002 6.48773834e-003 1.32398418e-004 2.40110985e-005
      2.53978742e-005 2.04881430e-002</_>
    <_>
      1.35359678e-005 2.21540276e-002 5.45215269e-004 1.47319973e-001
      3.08913266e-004 1.85264566e-004 4.93526552e-003 7.80654000e-003
      1.39433076e-004 1.79978721e-002 4.03876789e-002 6.13603067e+000
      3.51727270e-002 5.89059608e-004 1.97156551e-005 5.83792498e-005
      2.70768487e-005 2.45586053e-001</_>
    <_>
      1.36507342e-005 -7.42119253e-002 2.64011876e-004 9.85939279e-002
      8.88040886e-005 6.71568123e-005 3.37318610e-003 7.75730517e-003
      1.78437404e-004 1.60962101e-002 1.00063644e-002 5.14716482e+000
      3.01213823e-002 2.00443203e-003 6.81479214e-005 0. 1.02765422e-004
      6.31397069e-002</_>
    <_>
      8.76437753e-006 9.98615474e-002 5.06219687e-004 1.08554825e-001
      4.67598184e-005 1.14151963e-003 5.88609662e-004 6.76353055e-004
      8.39462795e-004 1.63905144e-001 2.96795107e-002 4.69438839e+000
      2.63084956e-002 3.26033332e-004 2.00675022e-005 2.36036667e-005
      2.46722193e-005 3.38541120e-001</_>
    <_>
      1.01209871e-005 6.78779138e-003 2.58122425e-004 1.48221269e-001
      1.15259318e-004 8.42558293e-005 5.20693138e-003 9.40508861e-003
      1.38911637e-004 1.31531619e-002 1.93788409e-002 5.07109880e+000
      3.59893478e-002 1.88650517e-003 4.20436336e-005 1.05790110e-004
      2.26432094e-005 6.69656694e-002</_>
    <_>
      1.55008584e-005 -2.83220392e-002 7.15902788e-005 1.40554383e-001
      1.08155082e-005 7.60217608e-006 2.75061820e-002 1.24356372e-003
      3.27344569e-005 1.38323262e-001 9.23664402e-003 7.25348043e+000
      3.16743180e-002 2.51176744e-003 7.76331362e-005 0. 1.17532538e-004
      6.60827532e-002</_>
    <_>
      1.74117013e-005 8.45092610e-002 8.37636821e-004 1.30132616e-001
      1.51703516e-005 2.53022245e-005 3.84860148e-004 6.43212721e-002
      1.46022905e-003 2.19596690e-003 4.30137821e-004 6.28816223e+000
      2.48238947e-002 9.59098265e-002 1.30652077e-003 2.80927961e-005
      3.33257922e-005 1.47152413e-003</_></uncompressed_support_vectors>
  <decision_functions>
    <_>
      <sv_count>1</sv_count>
      <rho>3.4090231933559410e+000</rho>
      <alpha>
        1.</alpha></_></decision_functions></opencv_ml_svm>
</opencv_storage>
