%YAML:1.0
opencv_ml_svm:
   format: 3
   svmType: C_SVC
   kernel:
      type: LINEAR
   C: 3.
   term_criteria: { iterations:150 }
   var_count: 335
   class_count: 2
   class_labels: !!opencv-matrix
      rows: 2
      cols: 1
      dt: i
      data: [ 0, 1 ]
   sv_total: 1
   support_vectors:
      - [ -8.82093300e-005, 2.34726869e-007, -1.08080724e-006,
          -3.52947325e-007, -9.76666456e-007, -1.86205575e-008,
          -7.09085199e-008, -6.44846976e-009, -1.14563168e-008,
          -1.14563168e-008, 1.01021620e-007, -3.64117159e-009,
          -1.13965193e-008, -1.13965193e-008, 1.12855616e-007,
          -3.30232464e-009, -1.06566205e-008, -1.06566205e-008,
          9.41753484e-008, -2.62713473e-009, -1.23801813e-008,
          -1.23801813e-008, 1.25288665e-007, -1.86647608e-009,
          -1.41948462e-008, -1.41948462e-008, 1.55472634e-007,
          -5.54867929e-009, -1.21425989e-008, -1.21425989e-008,
          1.17803900e-007, -1.91662286e-009, -1.04224700e-008,
          -1.04224700e-008, 8.02318425e-008, -3.12764370e-009,
          -1.10652900e-008, -1.10652900e-008, 1.14200411e-007,
          -8.69334471e-009, -1.10938041e-008, -1.10938041e-008,
          8.22208008e-008, -5.03859443e-009, -1.19684387e-008,
          -1.19684387e-008, 1.27743164e-007, -3.96386562e-010,
          -1.28753186e-008, -1.28753186e-008, 1.32995424e-007,
          -2.77117351e-009, -1.13284688e-008, -1.13284688e-008,
          1.26580460e-007, -1.72079107e-009, -1.48715964e-008,
          -1.48715964e-008, 1.53291268e-007, 2.61357211e-008,
          -1.22042809e-006, -6.03663148e-006, -1.75197347e-005,
          -2.51650345e-008, 1.16529407e-006, -4.96642327e-009,
          1.29679040e-006, -1.00286400e-006, -3.24791972e-006,
          2.01359711e-008, -8.62813977e-007, -6.64271965e-006,
          -2.90491935e-005, -1.69961627e-008, 9.91750198e-007,
          2.39801268e-009, 9.01589772e-007, -7.64102481e-007,
          4.41473674e-007, 2.12834834e-008, -9.35371702e-007,
          -5.99598479e-006, -2.57703505e-005, -2.35825599e-008,
          1.13010617e-006, -2.36937314e-009, 1.10506016e-006,
          -9.59894010e-007, 2.12211626e-006, 2.45736338e-008,
          -8.68556810e-007, -2.03940317e-006, -1.58986732e-005,
          -1.74484285e-008, 9.05126058e-007, 7.64675656e-010,
          9.06852961e-007, -6.74710975e-007, -1.30556884e-006,
          2.53690153e-008, -1.21241817e-006, -2.63842958e-006,
          -1.96279107e-005, -1.17459669e-008, 9.42651184e-007,
          4.14462242e-009, 1.10630913e-006, -9.70066708e-007,
          -3.12534780e-006, 2.18141274e-008, -7.64198262e-007,
          -2.72997113e-006, -2.06835211e-005, -1.39187604e-008,
          8.88611396e-007, 4.18384039e-009, 9.06250932e-007,
          -7.13724717e-007, 1.20089851e-006, 2.58288360e-008,
          -1.15817681e-006, -4.24671362e-006, -7.49728679e-006,
          -2.56933657e-008, 1.16811873e-006, -2.08326534e-009,
          1.17548598e-006, -1.09341147e-006, 4.36451842e-007,
          2.65108504e-008, -9.77782520e-007, -4.23943129e-006,
          -1.32690066e-005, -1.91769587e-008, 1.05890456e-006,
          3.08426462e-009, 1.12416353e-006, -8.81201458e-007,
          -6.72718272e-007, 3.10116732e-008, -1.37950110e-006,
          -5.90706213e-006, -1.20226659e-005, -2.46838514e-008,
          1.17294019e-006, -1.61424729e-009, 1.35086498e-006,
          -1.14787736e-006, -3.76034723e-006, 2.69604321e-008,
          -9.62022796e-007, -2.09940458e-006, -1.51690701e-005,
          -2.20370655e-008, 9.92622404e-007, -2.22244245e-009,
          1.16150966e-006, -7.60300793e-007, -4.16226885e-006,
          3.24709291e-008, -1.47533535e-006, -8.07513572e-007,
          -1.28713027e-005, -1.81378592e-008, 9.15261069e-007,
          7.65005659e-009, 1.02451111e-006, -1.27778469e-006,
          -3.34619654e-006, 1.99384260e-008, -9.22985407e-007,
          -1.91414983e-006, -1.66919490e-005, -2.02021404e-008,
          8.68875247e-007, -9.80239334e-010, 6.98952931e-007,
          -8.27524332e-007, 2.77231970e-006, 2.05413340e-008,
          -1.04028186e-006, -2.75908683e-008, -2.08423608e-005,
          -9.84725990e-009, 6.81527013e-007, 9.04584319e-009,
          5.47563559e-007, -9.11465122e-007, 1.94018821e-006,
          6.93117545e-005, -1.60738546e-006, -6.72169563e-007,
          -2.40670289e-007, 2.19094987e-009, -6.50119036e-005,
          -1.59646019e-009, 1.65534487e-007, 4.79446427e-010,
          -4.82211493e-010, 1.01612233e-010, -9.43079614e-010,
          2.80336874e-008, 1.90132479e-010, -6.20196672e-010,
          -5.86750870e-010, -1.10583995e-008, 5.44532336e-011,
          -2.47444787e-010, 0., 4.07085476e-010, -2.54508220e-010,
          -6.26747321e-010, 1.08981518e-010, -1.22833281e-008, 0.,
          3.63072350e-011, 0., 0., -1.01948762e-011, -6.33350372e-010,
          0., -2.84309964e-010, 4.94083281e-011, -7.28836262e-012,
          -3.54102858e-010, 0., 0., 0., 2.03445438e-011,
          -2.91553420e-010, 5.07490014e-012, -1.10541210e-009,
          3.02232683e-010, -2.57835908e-009, 2.94181612e-009,
          1.39255025e-008, -1.20483146e-009, 2.21321788e-008,
          -1.26724509e-009, -2.73196354e-010, -2.26167349e-010,
          -9.76883019e-009, -1.25852595e-009, -3.11205062e-010, 0.,
          7.00569547e-010, -6.15121731e-010, -9.11012266e-010,
          5.23146873e-011, -1.04168993e-008, 2.90637826e-012,
          -9.43720102e-010, 0., 0., -2.95197450e-010, -2.98103819e-010,
          2.90637826e-012, -5.62762115e-010, -2.86478369e-010,
          -5.01910666e-011, -6.23136165e-009, 0., 2.90637826e-012, 0.,
          -7.28836262e-012, -1.47563515e-012, 3.95460026e-010,
          -1.29662991e-009, -1.35173039e-009, -4.23281099e-009,
          -5.83618265e-009, 7.00355399e-011, -7.56546437e-010,
          3.16723714e-008, -6.10001771e-010, -2.05084977e-010,
          -9.48892409e-010, -2.50073362e-009, -3.19186316e-010,
          3.49162643e-010, 0., -6.37634834e-010, -3.07560866e-010,
          -4.54007970e-010, -6.34088060e-010, -1.02866533e-008, 0.,
          -2.11274314e-011, 0., 0., 4.13636181e-010, 1.08877751e-011, 0.,
          3.70450441e-011, -5.09290214e-011, -3.01010189e-010,
          -1.43657497e-009, 0., 0., 0., -3.78277826e-011,
          -3.10467235e-010, -3.09729409e-010, -1.75607628e-009,
          -6.00016425e-010, 4.79446427e-010, -4.82211493e-010,
          1.01612233e-010, 2.80336874e-008, -1.10583995e-008,
          -1.22833281e-008, -3.54102858e-010, -1.10541210e-009,
          3.02232683e-010, -3.63364006e-009, -2.57835908e-009,
          2.94181612e-009, 1.39255025e-008, 2.21321788e-008,
          -9.76883019e-009, -1.04168993e-008, -6.23136165e-009,
          -1.29662991e-009, -1.35173039e-009, -7.35545846e-009,
          -4.23281099e-009, -5.83618265e-009, 7.00355399e-011,
          3.16723714e-008, -2.50073362e-009, -1.02866533e-008,
          -1.43657497e-009, -1.75607628e-009, -6.00016425e-010,
          -5.09336129e-009 ]
   uncompressed_sv_total: 12
   uncompressed_support_vectors:
      - [ 12544., 1.30366004e+000, 5.39277983e+000, 2.55025005e+000,
          4.82551003e+001, 6.95307016e-001, 2.57209992e+000,
          9.79188010e-002, 2.68938001e-002, 2.68938001e-002,
          5.80641985e+000, 1.11121997e-001, 2.75462996e-002,
          2.75462996e-002, 5.72813988e+000, 8.34852010e-002,
          2.26067994e-002, 2.26067994e-002, 5.97361994e+000,
          1.15956001e-001, 2.97430009e-002, 2.97430009e-002,
          5.66201019e+000, 1.39668003e-001, 3.56696993e-002,
          3.56696993e-002, 5.36829996e+000, 1.09608002e-001,
          2.77014002e-002, 2.77014002e-002, 5.70103979e+000,
          9.25358012e-002, 2.44766995e-002, 2.44766995e-002,
          5.88794994e+000, 1.17693998e-001, 3.02204993e-002,
          3.02204993e-002, 5.65154982e+000, 9.70861018e-002,
          2.79015992e-002, 2.79015992e-002, 5.78377008e+000,
          1.22157000e-001, 3.46257985e-002, 3.46257985e-002,
          5.50652981e+000, 1.44482002e-001, 3.93235013e-002,
          3.93235013e-002, 5.25560999e+000, 1.07363001e-001,
          2.55488008e-002, 2.55488008e-002, 5.77372980e+000,
          1.40606999e-001, 3.47316004e-002, 3.47316004e-002,
          5.34150982e+000, 8.17574978e-001, 7.33333015e+000,
          1.07005997e+002, 4.26346008e+002, 3.03719014e-001,
          1.36763000e+001, 2.35852003e-001, 1.19245005e+001,
          2.89722991e+000, 6.57146988e+001, 7.96118975e-001,
          6.54838991e+000, 9.39570007e+001, 3.60613007e+002,
          2.99448013e-001, 1.41325998e+001, 2.32288003e-001,
          1.18256998e+001, 2.52595997e+000, 6.29821014e+001,
          8.49050999e-001, 6.48607016e+000, 1.13415001e+002,
          4.70566986e+002, 3.21166009e-001, 1.32770996e+001,
          2.78645009e-001, 1.16681995e+001, 2.14450002e+000,
          6.43731003e+001, 8.10294986e-001, 5.92856979e+000,
          9.80279007e+001, 3.82707001e+002, 3.03393990e-001,
          1.37090998e+001, 2.50205994e-001, 1.12727003e+001,
          1.77521002e+000, 6.37212982e+001, 6.87905014e-001,
          8.02616024e+000, 8.31166992e+001, 2.45671997e+002,
          2.78394997e-001, 1.43863001e+001, 1.70365006e-001,
          1.08530998e+001, 2.84016991e+000, 8.21911011e+001,
          8.02920997e-001, 6.52763987e+000, 1.05027000e+002,
          3.91063995e+002, 3.27603996e-001, 1.32160997e+001,
          2.66007006e-001, 1.08915997e+001, 1.89786994e+000,
          7.61306992e+001, 8.43178988e-001, 6.56250000e+000,
          1.11750000e+002, 4.60752991e+002, 3.07099998e-001,
          1.33906002e+001, 2.50420004e-001, 1.17553997e+001,
          2.55876994e+000, 6.37780991e+001, 7.63631999e-001,
          7.22735977e+000, 8.84823990e+001, 3.27299011e+002,
          2.76930004e-001, 1.48206997e+001, 1.88244000e-001,
          1.26542997e+001, 2.80098009e+000, 6.54657974e+001,
          8.05656016e-001, 7.40000010e+000, 1.04334000e+002,
          4.07695007e+002, 3.14144999e-001, 1.37115002e+001,
          2.38692001e-001, 1.18477001e+001, 2.68024993e+000,
          7.05507965e+001, 7.60815024e-001, 7.91231012e+000,
          8.73097000e+001, 3.20944000e+002, 2.82575011e-001,
          1.48488998e+001, 2.02883005e-001, 1.25128002e+001,
          3.14808011e+000, 6.56250000e+001, 6.66568995e-001,
          9.37633991e+000, 7.47074966e+001, 2.17162994e+002,
          2.67935008e-001, 1.51934996e+001, 1.42451003e-001,
          1.17193003e+001, 3.75446010e+000, 8.14322968e+001,
          8.35192978e-001, 4.76189995e+000, 1.09948997e+002,
          4.43889008e+002, 3.20351005e-001, 1.32206001e+001,
          2.63907999e-001, 1.13760996e+001, 1.71810997e+000,
          4.95587006e+001, 7.48598993e-001, 5.96963978e+000,
          9.64570999e+001, 3.17768005e+002, 3.17645997e-001,
          1.35285997e+001, 2.33028993e-001, 1.07579002e+001,
          1.98010004e+000, 6.24231987e+001, 936., 2.91667008e+000,
          1.19167004e+001, 14., 1.08388996e+000, 5.34616028e+002,
          8.65550995e-001, 2.02132010e+000, 3.57142985e-002,
          7.14285970e-002, 8.16327035e-002, 0., 3.11224014e-001, 0., 0.,
          0., 3.52041006e-001, 5.10203978e-003, 5.10203978e-003, 0.,
          5.10203978e-003, 0., 0., 5.10203978e-003, 8.67346972e-002, 0.,
          0., 0., 0., 0., 0., 0., 0., 0., 0., 2.55101994e-002, 0., 0.,
          0., 0., 0., 0., 1.02041001e-002, 5.10203978e-003,
          3.57142985e-002, 5.61223999e-002, 1.07143000e-001, 0.,
          3.31633002e-001, 0., 0., 5.10203978e-003, 3.21429014e-001, 0.,
          0., 0., 1.02041001e-002, 0., 0., 0., 1.02040999e-001, 0., 0.,
          0., 0., 0., 0., 0., 0., 0., 0., 1.02041001e-002, 0., 0., 0.,
          0., 0., 5.10203978e-003, 1.02041001e-002, 5.10203978e-003,
          2.55101994e-002, 3.06122005e-002, 7.65305981e-002, 0.,
          3.87755007e-001, 0., 5.10203978e-003, 0., 3.62244993e-001, 0.,
          0., 0., 0., 0., 0., 0., 8.16327035e-002, 0., 0., 0., 0.,
          5.10203978e-003, 0., 0., 0., 0., 0., 1.53061002e-002, 0., 0.,
          0., 0., 0., 0., 5.10203978e-003, 5.10203978e-003,
          3.57142985e-002, 7.14285970e-002, 8.16327035e-002,
          3.11224014e-001, 3.52041006e-001, 8.67346972e-002,
          2.55101994e-002, 1.02041001e-002, 5.10203978e-003,
          2.04082001e-002, 3.57142985e-002, 5.61223999e-002,
          1.07143000e-001, 3.31633002e-001, 3.21429014e-001,
          1.02040999e-001, 1.02041001e-002, 1.02041001e-002,
          5.10203978e-003, 2.04082001e-002, 2.55101994e-002,
          3.06122005e-002, 7.65305981e-002, 3.87755007e-001,
          3.62244993e-001, 8.16327035e-002, 1.53061002e-002,
          5.10203978e-003, 5.10203978e-003, 1.02041001e-002 ]
      - [ 6464., 3.45920992e+000, 2.67758999e+001, 1.31006002e+001,
          6.67468033e+001, 3.77261013e-001, 2.09650993e+000,
          7.14650983e-003, 1.04595004e-002, 1.04595004e-002,
          6.82220984e+000, 1.94326993e-002, 1.21290004e-002,
          1.21290004e-002, 6.69037008e+000, 5.64520992e-003,
          1.00386003e-002, 1.00386003e-002, 6.84543991e+000,
          2.09215004e-002, 1.29167000e-002, 1.29167000e-002,
          6.80248022e+000, 3.71403992e-002, 1.72194000e-002,
          1.72194000e-002, 6.39543009e+000, 2.64109001e-002,
          1.20893000e-002, 1.20893000e-002, 6.75752020e+000,
          1.12341996e-002, 1.02041001e-002, 1.02041001e-002,
          6.80583000e+000, 2.86970008e-002, 1.37280002e-002,
          1.37280002e-002, 6.60567999e+000, 2.15949006e-002,
          1.04432004e-002, 1.04432004e-002, 6.80701017e+000,
          4.17279005e-002, 1.20332995e-002, 1.20332995e-002,
          6.68114996e+000, 5.43049015e-002, 1.82927009e-002,
          1.82927009e-002, 6.20959997e+000, 3.43892016e-002,
          1.14018004e-002, 1.14018004e-002, 6.71317005e+000,
          5.43712005e-002, 1.96787994e-002, 1.96787994e-002,
          6.21461010e+000, 9.30666983e-001, 2.73333001e+000,
          2.74888992e+001, 1.55878006e+002, 3.31820011e-001,
          1.88055992e+001, 3.10281992e-001, 1.76749001e+001,
          8.70280981e-001, 4.70722008e+001, 9.08661008e-001,
          2.73143005e+000, 2.63370991e+001, 1.44119995e+002,
          3.18726003e-001, 1.85314007e+001, 2.81015992e-001,
          1.66401005e+001, 1.19208002e+000, 4.90629005e+001,
          9.41977978e-001, 2.45055008e+000, 2.81648006e+001,
          1.61330002e+002, 3.33591014e-001, 1.83022003e+001,
          3.17490011e-001, 1.68990993e+001, 7.36114979e-001,
          5.33791008e+001, 9.13749993e-001, 2.92000008e+000,
          2.52285995e+001, 1.45606003e+002, 2.97107995e-001,
          1.95657005e+001, 2.44222000e-001, 1.86490993e+001,
          1.68329000e+000, 3.47714005e+001, 8.48847985e-001,
          4.06369019e+000, 2.19682007e+001, 1.11764000e+002,
          2.78926015e-001, 2.02483997e+001, 2.14655995e-001,
          1.79498997e+001, 2.43528008e+000, 4.31400986e+001,
          9.13749993e-001, 2.92000008e+000, 2.57085991e+001,
          1.45606003e+002, 3.03011000e-001, 1.88229008e+001,
          2.55659014e-001, 1.72098007e+001, 1.60064995e+000,
          4.51713982e+001, 9.18488026e-001, 3.35028005e+000,
          2.63897991e+001, 1.49384003e+002, 3.19981009e-001,
          1.92033997e+001, 2.86581010e-001, 1.81348000e+001,
          1.46747005e+000, 4.62316017e+001, 8.89802992e-001,
          3.31578994e+000, 2.47544003e+001, 1.35257004e+002,
          3.05752009e-001, 1.95905991e+001, 2.53217012e-001,
          1.82469006e+001, 1.69895005e+000, 4.16432991e+001,
          9.00530994e-001, 3.80460000e+000, 2.59424992e+001,
          1.41529007e+002, 3.17990988e-001, 1.89943008e+001,
          2.76807994e-001, 1.73885994e+001, 1.66542995e+000,
          5.94539986e+001, 8.78400981e-001, 3.22353005e+000,
          2.63411999e+001, 1.31447006e+002, 3.30386996e-001,
          1.80941010e+001, 2.89781988e-001, 1.52419004e+001,
          1.04954004e+000, 6.48412018e+001, 8.50902021e-001,
          3.67296004e+000, 2.35156994e+001, 1.13754997e+002,
          3.07907999e-001, 1.89559994e+001, 2.48181999e-001,
          1.59910002e+001, 1.59267998e+000, 5.52263985e+001,
          8.72133970e-001, 3.32543993e+000, 2.56035004e+001, 129.,
          3.26285005e-001, 1.86095009e+001, 2.79029995e-001,
          1.61494999e+001, 1.11342001e+000, 6.04851990e+001,
          7.61696994e-001, 7.20438004e+000, 1.97152996e+001,
          7.97591019e+001, 3.09195012e-001, 1.99489002e+001,
          2.22319007e-001, 1.58577003e+001, 2.77574992e+000,
          1.06036003e+002, 224., 1.25000000e+000, 4., 5.25000000e+000,
          1.14564002e+000, 1.95322998e+002, 9.13195014e-001,
          1.78884995e+000, 4.95049991e-002, 2.97030006e-002,
          1.68317005e-001, 0., 4.45544988e-001, 0., 0., 0.,
          3.06930989e-001, 0., 0., 0., 0., 0., 0., 0., 0., 0., 0., 0.,
          0., 0., 0., 0., 0., 0., 0., 0., 0., 0., 0., 0., 0., 0., 0., 0.,
          7.92078972e-002, 1.08911000e-001, 1.28712997e-001, 0.,
          4.05941010e-001, 0., 0., 0., 2.67327011e-001, 0., 0., 0., 0.,
          0., 0., 0., 9.90098994e-003, 0., 0., 0., 0., 0., 0., 0., 0.,
          0., 0., 0., 0., 0., 0., 0., 0., 0., 0., 0., 4.95049991e-002,
          3.96040007e-002, 7.92078972e-002, 0., 4.55446005e-001, 0., 0.,
          0., 3.66337001e-001, 0., 0., 0., 0., 0., 0., 0.,
          9.90098994e-003, 0., 0., 0., 0., 0., 0., 0., 0., 0., 0., 0.,
          0., 0., 0., 0., 0., 0., 0., 0., 4.95049991e-002,
          2.97030006e-002, 1.68317005e-001, 4.45544988e-001,
          3.06930989e-001, 0., 0., 0., 0., 0., 7.92078972e-002,
          1.08911000e-001, 1.28712997e-001, 4.05941010e-001,
          2.67327011e-001, 9.90098994e-003, 0., 0., 0., 0.,
          4.95049991e-002, 3.96040007e-002, 7.92078972e-002,
          4.55446005e-001, 3.66337001e-001, 9.90098994e-003, 0., 0., 0.,
          0. ]
      - [ 4.67779980e+003, 3.81315994e+000, 4.52745018e+001,
          2.05424004e+001, 6.78031006e+001, 3.39967996e-001,
          2.02677011e+000, 3.24986987e-002, 2.00242996e-002,
          2.00242996e-002, 6.49625015e+000, 3.71794999e-002,
          2.48565003e-002, 2.48565003e-002, 6.19639015e+000,
          2.29961006e-003, 1.40690003e-002, 1.40690003e-002,
          6.62193012e+000, 4.36213017e-002, 2.15774998e-002,
          2.15774998e-002, 6.26796007e+000, 6.80337995e-002,
          5.21330982e-002, 5.21330982e-002, 5.35895014e+000,
          3.65931988e-002, 1.76938009e-002, 1.76938009e-002,
          6.42301989e+000, 2.01958995e-002, 1.39447004e-002,
          1.39447004e-002, 6.62047005e+000, 5.38186990e-002,
          3.42805013e-002, 3.42805013e-002, 5.89240980e+000,
          4.06366996e-002, 1.97407994e-002, 1.97407994e-002,
          6.34187984e+000, 3.96682993e-002, 2.13035997e-002,
          2.13035997e-002, 6.44651985e+000, 4.90952991e-002,
          3.49567011e-002, 3.49567011e-002, 5.92881012e+000,
          1.41556002e-002, 1.44448001e-002, 1.44448001e-002,
          6.57427979e+000, 4.42693010e-002, 2.35830992e-002,
          2.35830992e-002, 6.22441006e+000, 8.31993997e-001,
          6.66666985e+000, 4.84544983e+001, 1.85962006e+002,
          4.01042014e-001, 1.61515007e+001, 3.21013004e-001,
          1.34483004e+001, 3.55403996e+000, 8.64544983e+001,
          8.84943008e-001, 4.27272987e+000, 4.20455017e+001,
          2.06302994e+002, 3.41230989e-001, 1.79053001e+001,
          2.61189014e-001, 1.69379997e+001, 3.05372000e+000,
          3.48143997e+001, 9.65934992e-001, 1.85160995e+000,
          6.11355019e+001, 2.88781006e+002, 4.27421987e-001,
          1.57839003e+001, 4.12793010e-001, 1.53781996e+001,
          7.93147981e-001, 2.59258003e+001, 8.77947986e-001,
          4.73584986e+000, 4.64263992e+001, 2.03912994e+002,
          3.77045989e-001, 1.66452999e+001, 3.09561998e-001,
          1.48149004e+001, 2.62650990e+000, 6.16226006e+001,
          6.66054010e-001, 1.08058996e+001, 2.27059002e+001,
          7.85058975e+001, 2.76562005e-001, 2.18059006e+001,
          1.43814996e-001, 1.73372993e+001, 4.42448997e+000,
          1.32953003e+002, 8.90954018e-001, 3.24211001e+000,
          5.17228012e+001, 2.26011002e+002, 3.95563990e-001,
          1.65123005e+001, 3.24382007e-001, 1.54756002e+001,
          2.03184009e+000, 3.35965004e+001, 9.07850981e-001,
          3.49315000e+000, 5.46370010e+001, 2.41184998e+002,
          4.08490002e-001, 1.64554996e+001, 3.52683008e-001,
          1.57386999e+001, 1.99307001e+000, 3.45651016e+001,
          7.89375007e-001, 6.67999983e+000, 3.28666992e+001,
          1.43408997e+002, 3.03068012e-001, 1.95333004e+001,
          1.94793999e-001, 1.71770992e+001, 3.81462002e+000,
          6.35332985e+001, 8.09334993e-001, 5.97378016e+000,
          4.95993004e+001, 1.81651993e+002, 4.07582015e-001,
          1.66478996e+001, 3.08959991e-001, 1.45696001e+001,
          3.08028007e+000, 6.88126984e+001, 7.96999991e-001,
          5.56574011e+000, 4.45139008e+001, 1.63613998e+002,
          3.84876996e-001, 1.61355000e+001, 2.91610003e-001,
          1.25559998e+001, 3.19488001e+000, 7.47250977e+001,
          8.07502985e-001, 6.26086998e+000, 3.42173996e+001,
          1.48565002e+002, 3.02410990e-001, 1.89435005e+001,
          1.89799994e-001, 1.69039993e+001, 4.51226997e+000,
          5.30391006e+001, 9.08690989e-001, 2.62500000e+000,
          5.51528015e+001, 2.37257004e+002, 4.19185996e-001,
          1.63332996e+001, 3.81590992e-001, 1.53078003e+001,
          1.18476999e+000, 3.29062996e+001, 8.47357988e-001,
          3.96947002e+000, 4.45648994e+001, 1.86007996e+002,
          3.68187010e-001, 1.69008007e+001, 2.72390008e-001,
          1.49601002e+001, 2.66184998e+000, 3.70648994e+001, 343., 4.,
          4., 4., 1., 2.50636002e+002, 9.45446014e-001, 1.,
          7.44680986e-002, 9.57446992e-002, 1.06383003e-001,
          1.06383003e-002, 2.76596010e-001, 0., 0., 0., 2.76596010e-001,
          0., 2.12766007e-002, 0., 0., 0., 0., 0., 1.17021002e-001, 0.,
          0., 0., 0., 0., 1.06383003e-002, 0., 0., 0., 0.,
          1.06383003e-002, 0., 0., 0., 0., 0., 0., 0., 0.,
          3.19149010e-002, 6.38298020e-002, 1.59574002e-001,
          1.06383003e-002, 2.76596010e-001, 0., 0., 0., 4.14894015e-001,
          0., 0., 0., 0., 0., 0., 0., 4.25532013e-002, 0., 0., 0., 0.,
          0., 0., 0., 0., 0., 0., 0., 0., 0., 0., 0., 0., 0., 0., 0.,
          7.44680986e-002, 1.06383003e-001, 5.31915016e-002,
          1.06383003e-002, 2.76596010e-001, 0., 0., 1.06383003e-002,
          3.82979006e-001, 0., 1.06383003e-002, 0., 0., 0., 0.,
          1.06383003e-002, 6.38298020e-002, 0., 0., 0., 0., 0., 0., 0.,
          0., 0., 0., 0., 0., 0., 0., 0., 0., 0., 0., 0.,
          7.44680986e-002, 9.57446992e-002, 1.06383003e-001,
          2.76596010e-001, 2.76596010e-001, 1.17021002e-001,
          1.06383003e-002, 0., 0., 4.25532013e-002, 3.19149010e-002,
          6.38298020e-002, 1.59574002e-001, 2.76596010e-001,
          4.14894015e-001, 4.25532013e-002, 0., 0., 0., 1.06383003e-002,
          7.44680986e-002, 1.06383003e-001, 5.31915016e-002,
          2.76596010e-001, 3.82979006e-001, 6.38298020e-002, 0., 0., 0.,
          4.25532013e-002 ]
      - [ 55424., 1.15944004e+000, 5.75795984e+000, 2.20304990e+000,
          2.36481991e+001, 1.80002999e+000, 7.04922009e+000,
          1.60445005e-001, 3.42984982e-002, 3.42984982e-002,
          5.35575008e+000, 1.78668007e-001, 3.78841013e-002,
          3.78841013e-002, 5.21431017e+000, 1.58258006e-001,
          3.48042995e-002, 3.48042995e-002, 5.36487007e+000,
          1.66666999e-001, 3.65924984e-002, 3.65924984e-002,
          5.30349016e+000, 1.91370994e-001, 4.33373004e-002,
          4.33373004e-002, 5.04562998e+000, 1.74278006e-001,
          3.71615998e-002, 3.71615998e-002, 5.24721003e+000,
          1.61631003e-001, 3.72746997e-002, 3.72746997e-002,
          5.33255005e+000, 1.84958994e-001, 4.25123982e-002,
          4.25123982e-002, 5.12811995e+000, 1.75615996e-001,
          3.75915989e-002, 3.75915989e-002, 5.24172020e+000,
          1.91845000e-001, 4.61688004e-002, 4.61688004e-002,
          4.98252010e+000, 2.07140997e-001, 5.99040017e-002,
          5.99040017e-002, 4.61565018e+000, 1.80497006e-001,
          4.42874990e-002, 4.42874990e-002, 5.09788990e+000,
          1.92394003e-001, 5.18861003e-002, 5.18861003e-002,
          4.85971022e+000, 7.73136973e-001, 8.93206024e+000,
          3.59932007e+002, 1.17642004e+003, 3.04471999e-001,
          1.21285000e+001, 2.25476995e-001, 1.00956001e+001,
          3.10416007e+000, 8.07994003e+001, 7.61027992e-001,
          7.31463003e+000, 3.31493988e+002, 1.06140002e+003,
          2.90971994e-001, 1.25227003e+001, 2.09038004e-001,
          1.02833004e+001, 2.59631991e+000, 6.95397034e+001,
          7.76849985e-001, 8.93607044e+000, 3.54601990e+002,
          1.17952002e+003, 2.98307002e-001, 1.23346004e+001,
          2.21555993e-001, 1.04139004e+001, 3.04121995e+000,
          7.60874023e+001, 7.38996983e-001, 7.72716999e+000,
          3.26795990e+002, 1.00398999e+003, 3.00226003e-001,
          1.23148003e+001, 2.10822999e-001, 9.82866001e+000,
          2.63253999e+000, 7.31798019e+001, 6.81047976e-001,
          8.18647003e+000, 2.91115997e+002, 7.70883972e+002,
          2.87021011e-001, 1.29500999e+001, 1.79374993e-001,
          9.99750042e+000, 2.93220997e+000, 7.26789017e+001,
          7.28402019e-001, 8.73208046e+000, 3.33757996e+002,
          9.85796021e+002, 2.98817009e-001, 1.22389002e+001,
          1.97512001e-001, 9.73243046e+000, 3.38322997e+000,
          7.87628021e+001, 7.54020989e-001, 9.82365990e+000,
          3.23002991e+002, 1.05522998e+003, 2.99279988e-001,
          1.24624996e+001, 2.11769000e-001, 1.00424995e+001,
          3.52177000e+000, 9.11155014e+001, 7.10525990e-001,
          9.65789986e+000, 2.86731995e+002, 8.60335999e+002,
          2.94524997e-001, 1.29066000e+001, 1.89498007e-001,
          1.00127001e+001, 3.76695991e+000, 8.50851974e+001,
          7.47512996e-001, 1.04427996e+001, 3.34755005e+002,
          1.06443994e+003, 2.98186988e-001, 1.24362001e+001,
          2.05495998e-001, 1.02108002e+001, 3.75078011e+000,
          8.95549011e+001, 6.75997019e-001, 1.06933002e+001,
          2.68276001e+002, 7.39119995e+002, 2.85894990e-001,
          1.27743998e+001, 1.79126993e-001, 9.21940994e+000,
          3.66409993e+000, 1.09463997e+002, 5.35751998e-001,
          1.49480000e+001, 1.93485992e+002, 3.93260986e+002,
          2.66885996e-001, 1.42634001e+001, 1.08216003e-001,
          9.35857964e+000, 5.38684988e+000, 1.41279999e+002,
          6.97992027e-001, 1.02251997e+001, 2.58850006e+002,
          7.62109009e+002, 2.78035015e-001, 1.34758997e+001,
          1.79218993e-001, 1.04807997e+001, 3.44973993e+000,
          9.24738007e+001, 6.04553998e-001, 1.34535999e+001,
          2.32903000e+002, 5.20513977e+002, 2.79753000e-001,
          1.33486996e+001, 1.45947993e-001, 9.23620987e+000,
          5.09334993e+000, 1.19252998e+002, 2856., 5.25000000e+000, 24.,
          3.66666985e+001, 1.23602998e+000, 1.17648999e+003,
          8.27436984e-001, 2.13808990e+000, 2.07851995e-002,
          4.15703990e-002, 7.15935007e-002, 1.15472998e-003,
          2.36720994e-001, 3.46420007e-003, 3.46420007e-003,
          1.15472998e-003, 3.45266014e-001, 6.92840992e-003,
          2.30946997e-003, 0., 2.30946997e-003, 1.15472998e-003,
          4.61893994e-003, 3.46420007e-003, 1.62818000e-001, 0.,
          2.30946997e-003, 0., 0., 2.30946997e-003, 0., 0.,
          2.30946997e-003, 0., 2.30946997e-003, 4.50345986e-002, 0., 0.,
          0., 0., 0., 1.15472998e-003, 3.00230999e-002, 5.77367004e-003,
          2.77136005e-002, 5.77366985e-002, 8.66051018e-002, 0.,
          1.99769005e-001, 3.46420007e-003, 3.46420007e-003,
          3.46420007e-003, 3.11778009e-001, 3.46420007e-003,
          3.46420007e-003, 0., 0., 4.61893994e-003, 2.30946997e-003, 0.,
          1.67436004e-001, 0., 3.46420007e-003, 0., 0., 1.15472998e-003,
          1.15472998e-003, 0., 0., 1.15472998e-003, 5.77367004e-003,
          7.39030018e-002, 0., 0., 0., 2.30946997e-003, 2.30946997e-003,
          2.30946997e-003, 2.30947006e-002, 8.08313955e-003,
          2.77136005e-002, 3.92609984e-002, 9.00693014e-002,
          1.15472998e-003, 2.11316004e-001, 1.15472998e-003,
          2.30946997e-003, 1.15472998e-003, 2.82909989e-001,
          2.30946997e-003, 0., 0., 3.46420007e-003, 2.30946997e-003,
          3.46420007e-003, 1.15472998e-003, 1.85911998e-001, 0.,
          5.77367004e-003, 0., 0., 1.15472998e-003, 1.15472998e-003, 0.,
          1.15472998e-003, 6.92840992e-003, 1.15472998e-003,
          7.04388022e-002, 0., 0., 0., 4.61893994e-003, 2.30946997e-003,
          1.15472998e-003, 2.54042000e-002, 2.30947006e-002,
          2.07851995e-002, 4.15703990e-002, 7.15935007e-002,
          2.36720994e-001, 3.45266014e-001, 1.62818000e-001,
          4.50345986e-002, 3.00230999e-002, 5.77367004e-003,
          4.04157005e-002, 2.77136005e-002, 5.77366985e-002,
          8.66051018e-002, 1.99769005e-001, 3.11778009e-001,
          1.67436004e-001, 7.39030018e-002, 2.30947006e-002,
          8.08313955e-003, 4.38799001e-002, 2.77136005e-002,
          3.92609984e-002, 9.00693014e-002, 2.11316004e-001,
          2.82909989e-001, 1.85911998e-001, 7.04388022e-002,
          2.54042000e-002, 2.30947006e-002, 4.38799001e-002 ]
      - [ 327616., 9.67696011e-001, 9.28157997e+000, 4.35197020e+000,
          2.59424000e+001, 3.80378008e-001, 2.69492006e+000,
          1.60337999e-001, 4.53317985e-002, 4.53317985e-002,
          5.10937023e+000, 1.65724993e-001, 5.23793995e-002,
          5.23793995e-002, 4.92009020e+000, 1.59066007e-001,
          4.47224006e-002, 4.47224006e-002, 5.14184999e+000,
          1.65077001e-001, 4.88839000e-002, 4.88839000e-002,
          5.00114012e+000, 1.72139004e-001, 6.29383996e-002,
          6.29383996e-002, 4.67848015e+000, 1.65836006e-001,
          5.16176000e-002, 5.16176000e-002, 4.94795990e+000,
          1.54991999e-001, 4.15421017e-002, 4.15421017e-002,
          5.24089003e+000, 1.62340999e-001, 4.97988015e-002,
          4.97988015e-002, 5.00771999e+000, 1.58059999e-001,
          4.53305990e-002, 4.53305990e-002, 5.12482023e+000,
          1.68200999e-001, 5.28285988e-002, 5.28285988e-002,
          4.87294006e+000, 1.73844993e-001, 6.36696965e-002,
          6.36696965e-002, 4.60137987e+000, 1.66033998e-001,
          4.96005006e-002, 4.96005006e-002, 4.97181988e+000,
          1.75448999e-001, 6.20049015e-002, 6.20049015e-002,
          4.62735987e+000, 6.08147025e-001, 1.80664997e+001,
          2.91683008e+003, 7.64316992e+003, 1.77348003e-001,
          1.61879005e+001, 9.22503993e-002, 1.08080997e+001,
          4.15145016e+000, 2.38949997e+002, 5.78770995e-001,
          1.44757004e+001, 2.37284009e+003, 5.89802002e+003,
          1.57631993e-001, 1.71727009e+001, 8.05514976e-002,
          1.07783003e+001, 2.70713997e+000, 2.09848007e+002,
          6.16773009e-001, 1.74421005e+001, 2.98238989e+003,
          7.88631006e+003, 1.69359997e-001, 1.64011002e+001,
          9.06556025e-002, 1.10832005e+001, 3.69372010e+000,
          2.33567993e+002, 5.96392989e-001, 1.43943996e+001,
          2.49151001e+003, 6.29235986e+003, 1.65334001e-001,
          1.67364006e+001, 8.42202976e-002, 1.08908005e+001,
          3.12014008e+000, 1.98375000e+002, 4.88873988e-001,
          1.88999996e+001, 1.96543994e+003, 3.55698999e+003,
          1.45202994e-001, 1.78885002e+001, 6.07757010e-002,
          9.82168961e+000, 3.26939011e+000, 2.80403015e+002,
          5.95694005e-001, 1.44369001e+001, 2.31534009e+003,
          5.96666016e+003, 1.56325996e-001, 1.75590000e+001,
          8.05040970e-002, 1.15678997e+001, 2.81228995e+000,
          2.05753006e+002, 6.28436983e-001, 1.67523003e+001,
          3.24776001e+003, 8.66109961e+003, 1.69541001e-001,
          1.61840992e+001, 9.30498019e-002, 1.11798000e+001,
          3.71272993e+000, 2.15287003e+002, 6.00188971e-001,
          1.37577000e+001, 2.63487988e+003, 6.64779980e+003,
          1.52931005e-001, 1.71450005e+001, 8.12572017e-002,
          1.13129997e+001, 2.46618009e+000, 1.97487000e+002,
          6.06446981e-001, 1.81753998e+001, 2.96539990e+003,
          7.66675977e+003, 1.67941004e-001, 1.64771004e+001,
          9.01314020e-002, 1.11541996e+001, 3.72345996e+000,
          2.40052002e+002, 5.55992007e-001, 1.59731998e+001,
          2.19694995e+003, 5.31512988e+003, 1.62053004e-001,
          1.74491997e+001, 7.58484006e-002, 1.09391003e+001,
          3.28372002e+000, 2.21712006e+002, 4.21119004e-001,
          2.24895992e+001, 1.89162000e+003, 2.98385010e+003,
          1.46684006e-001, 1.79424992e+001, 4.77305986e-002,
          9.21395969e+000, 4.15657997e+000, 3.07915985e+002,
          5.86956024e-001, 1.47996998e+001, 2.46595996e+003,
          6.11945996e+003, 1.57509997e-001, 1.71830997e+001,
          7.92732984e-002, 1.11681995e+001, 2.92400002e+000,
          2.06307007e+002, 4.25924003e-001, 2.29325008e+001,
          1.78872998e+003, 2.90327002e+003, 1.61118999e-001,
          1.77917004e+001, 5.05251996e-002, 9.08510017e+000,
          5.09962988e+000, 3.11407990e+002, 39100., 52., 9.62500000e+001,
          1.76250000e+002, 1.35320997e+000, 6.49341016e+003,
          8.57950985e-001, 1.36049998e+000, 4.62981015e-002,
          5.88004999e-002, 8.71263966e-002, 2.34420993e-003,
          2.10587993e-001, 3.90700996e-003, 3.32096010e-003,
          3.51630989e-003, 2.94393003e-001, 3.71165993e-003,
          3.90700996e-003, 0., 2.34420993e-003, 4.88376990e-003,
          3.90700996e-003, 4.29771002e-003, 1.52960002e-001, 0.,
          4.49306984e-003, 0., 0., 1.36744999e-003, 1.17209996e-003, 0.,
          3.90700996e-003, 3.32096010e-003, 1.56281004e-003,
          5.04004993e-002, 0., 0., 0., 1.36744999e-003, 1.36744999e-003,
          1.36744999e-003, 2.40281001e-002, 1.93396993e-002,
          4.39538993e-002, 6.09494001e-002, 9.06426981e-002,
          4.68841987e-003, 2.16644004e-001, 1.75815995e-003,
          3.71165993e-003, 2.73491000e-003, 2.92439997e-001,
          2.34420993e-003, 3.12561006e-003, 0., 2.93026003e-003,
          4.68841987e-003, 3.71165993e-003, 3.51630989e-003,
          1.46318004e-001, 1.95350993e-004, 2.53955997e-003, 0., 0.,
          2.14885990e-003, 1.95351010e-003, 1.95350993e-004,
          4.10235999e-003, 2.73491000e-003, 1.75815995e-003,
          5.39168008e-002, 0., 1.95350993e-004, 0., 1.56281004e-003,
          1.95351010e-003, 1.56281004e-003, 2.59815995e-002,
          1.50420005e-002, 3.24282013e-002, 4.59074005e-002,
          8.36101025e-002, 2.93026003e-003, 2.09024996e-001,
          1.95351010e-003, 3.12561006e-003, 1.95351010e-003,
          3.25453997e-001, 1.56281004e-003, 3.32096010e-003, 0.,
          2.14885990e-003, 2.34420993e-003, 2.53955997e-003,
          2.14885990e-003, 1.66633993e-001, 0., 3.71165993e-003, 0., 0.,
          1.75815995e-003, 1.75815995e-003, 0., 3.51630989e-003,
          2.73491000e-003, 1.75815995e-003, 5.25492989e-002, 0., 0., 0.,
          1.56281004e-003, 2.14885990e-003, 1.17209996e-003,
          2.42235009e-002, 1.60188004e-002, 4.62981015e-002,
          5.88004999e-002, 8.71263966e-002, 2.10587993e-001,
          2.94393003e-001, 1.52960002e-001, 5.04004993e-002,
          2.40281001e-002, 1.93396993e-002, 5.60656004e-002,
          4.39538993e-002, 6.09494001e-002, 9.06426981e-002,
          2.16644004e-001, 2.92439997e-001, 1.46318004e-001,
          5.39168008e-002, 2.59815995e-002, 1.50420005e-002,
          5.41120991e-002, 3.24282013e-002, 4.59074005e-002,
          8.36101025e-002, 2.09024996e-001, 3.25453997e-001,
          1.66633993e-001, 5.25492989e-002, 2.42235009e-002,
          1.60188004e-002, 4.41492014e-002 ]
      - [ 3712., 1.79043996e+000, 1.13094997e+001, 5.35073996e+000,
          5.19444008e+001, 6.46218002e-001, 2.94078994e+000,
          2.51704995e-002, 1.75560005e-002, 1.75560005e-002,
          6.11616993e+000, 3.21773998e-002, 1.59131009e-002,
          1.59131009e-002, 6.20830011e+000, -1.17122000e-002,
          1.47391995e-002, 1.47391995e-002, 6.28665018e+000,
          3.27170007e-002, 1.61719006e-002, 1.61719006e-002,
          6.21131992e+000, 5.85247986e-002, 2.20001992e-002,
          2.20001992e-002, 5.91636992e+000, 1.03751002e-002,
          1.66976005e-002, 1.66976005e-002, 6.15471983e+000,
          -5.79437008e-003, 1.51367001e-002, 1.51367001e-002,
          6.20281982e+000, 2.84308996e-002, 1.64755005e-002,
          1.64755005e-002, 6.26612997e+000, 5.97134000e-003,
          1.79591998e-002, 1.79591998e-002, 5.99343014e+000,
          4.27123010e-002, 2.28563994e-002, 2.28563994e-002,
          5.97614002e+000, 6.74642995e-002, 2.22037006e-002,
          2.22037006e-002, 5.81492996e+000, 8.26406013e-003,
          1.48422997e-002, 1.48422997e-002, 6.26972008e+000,
          5.14164008e-002, 2.06163004e-002, 2.06163004e-002,
          5.97537994e+000, 9.08966005e-001, 3.27586007e+000,
          2.01033993e+001, 9.60861969e+001, 3.57257009e-001,
          1.43965998e+001, 3.25143993e-001, 1.30806999e+001,
          1.16008997e+000, 4.72930984e+001, 9.19871986e-001,
          2.28204989e+000, 2.01282005e+001, 9.87093964e+001,
          3.54312003e-001, 1.46922998e+001, 3.23321998e-001,
          1.38108997e+001, 8.50162029e-001, 2.87949009e+001,
          9.44000006e-001, 2.40000010e+000, 2.09333000e+001,
          1.06817001e+002, 3.64041001e-001, 1.45749998e+001,
          3.50942999e-001, 1.39350004e+001, 6.91486001e-001,
          3.05750008e+001, 9.00905013e-001, 3., 1.93157997e+001,
          9.23332977e+001, 3.44523013e-001, 1.48859997e+001,
          3.02610993e-001, 1.38083000e+001, 1.42958999e+000,
          3.25438995e+001, 8.82772982e-001, 3.01834989e+000,
          1.77523003e+001, 8.38623962e+001, 3.34264994e-001,
          1.58072996e+001, 2.80267000e-001, 1.50167999e+001,
          1.42232001e+000, 2.53302994e+001, 9.45312977e-001,
          1.87500000e+000, 2.04666996e+001, 1.06817001e+002,
          3.54479015e-001, 1.48750000e+001, 3.32722992e-001,
          1.45312996e+001, 7.02569008e-001, 2.03750000e+001,
          9.44000006e-001, 2.40000010e+000, 2.12500000e+001,
          1.06817001e+002, 3.65024000e-001, 1.40417004e+001,
          3.52869987e-001, 1.28896999e+001, 6.68871999e-001,
          4.28417015e+001, 8.72888982e-001, 3.45946002e+000,
          1.86576996e+001, 8.48018036e+001, 3.44211012e-001,
          1.51080999e+001, 2.92144001e-001, 1.38323002e+001,
          1.60295999e+000, 3.59459000e+001, 9.17949021e-001,
          3.05128002e+000, 2.05897007e+001, 9.87093964e+001,
          3.64057004e-001, 1.44956999e+001, 3.41677010e-001,
          1.34043999e+001, 9.23543990e-001, 4.17778015e+001,
          8.33180010e-001, 5.05881977e+000, 1.64902000e+001,
          7.14705963e+001, 3.14004987e-001, 1.55293999e+001,
          2.22100005e-001, 1.36346998e+001, 3.17419004e+000,
          4.72352982e+001, 8.62568974e-001, 3.49057007e+000,
          1.69811001e+001, 7.78678970e+001, 3.11966985e-001,
          1.58207998e+001, 2.42181003e-001, 1.46076002e+001,
          2.00798988e+000, 2.87357998e+001, 9.02173996e-001,
          2.56522012e+000, 1.96434994e+001, 9.35043030e+001,
          3.44698012e-001, 1.44695997e+001, 2.98379004e-001,
          1.31245003e+001, 1.08580995e+000, 3.59912987e+001,
          8.80415022e-001, 3.65421009e+000, 1.82150002e+001,
          8.18598022e+001, 3.45490992e-001, 1.46915998e+001,
          3.09944987e-001, 1.27386999e+001, 1.82936001e+000,
          3.82616997e+001, 150., 2., 2., 2.91667008e+000,
          1.20761001e+000, 1.41078003e+002, 9.67725992e-001, 1.,
          1.03448004e-001, 8.62068981e-002, 1.55172005e-001, 0.,
          3.79310012e-001, 1.72413997e-002, 0., 0., 2.24138007e-001, 0.,
          0., 0., 0., 0., 0., 0., 3.44827995e-002, 0., 0., 0., 0., 0.,
          0., 0., 0., 0., 0., 0., 0., 0., 0., 0., 0., 0., 0., 0.,
          1.20690003e-001, 1.37931004e-001, 2.06897005e-001, 0.,
          3.79310012e-001, 0., 1.72413997e-002, 0., 1.20690003e-001, 0.,
          0., 0., 0., 0., 0., 0., 1.72413997e-002, 0., 0., 0., 0., 0.,
          0., 0., 0., 0., 0., 0., 0., 0., 0., 0., 0., 0., 0., 0.,
          1.20690003e-001, 1.03448004e-001, 1.55172005e-001,
          1.72413997e-002, 3.44828010e-001, 0., 0., 0., 2.06897005e-001,
          0., 0., 0., 0., 0., 1.72413997e-002, 0., 3.44827995e-002, 0.,
          0., 0., 0., 0., 0., 0., 0., 0., 0., 0., 0., 0., 0., 0., 0., 0.,
          0., 0., 1.03448004e-001, 8.62068981e-002, 1.55172005e-001,
          3.79310012e-001, 2.24138007e-001, 3.44827995e-002, 0., 0., 0.,
          1.72413997e-002, 1.20690003e-001, 1.37931004e-001,
          2.06897005e-001, 3.79310012e-001, 1.20690003e-001,
          1.72413997e-002, 0., 0., 0., 1.72413997e-002, 1.20690003e-001,
          1.03448004e-001, 1.55172005e-001, 3.44828010e-001,
          2.06897005e-001, 3.44827995e-002, 0., 0., 0., 3.44827995e-002 ]
      - [ 448., 1.82790995e+000, 3.26132011e+000, 2.51507998e+000,
          8.21224976e+001, 1.47306994e-001, 2.52298999e+000,
          -6.41636029e-002, 1.66666999e-001, 1.66666999e-001,
          2.58495998e+000, -2.52388995e-002, 1.40000001e-001,
          1.40000001e-001, 2.92193007e+000, -1.51466995e-001,
          1.66666999e-001, 1.66666999e-001, 2.58495998e+000,
          -2.31472999e-002, 1.19999997e-001, 1.19999997e-001,
          3.12192988e+000, 6.16154000e-002, 6.25000000e-002,
          6.25000000e-002, 4., 4.21186984e-002, 1.00000001e-001,
          1.00000001e-001, 3.32192993e+000, -1.57289997e-001,
          1.66666999e-001, 1.66666999e-001, 2.58495998e+000,
          3.01895989e-003, 1.19999997e-001, 1.19999997e-001,
          3.12192988e+000, 1.08287998e-001, 2.22222000e-001,
          2.22222000e-001, 2.25163007e+000, 3.75472009e-002,
          8.33332986e-002, 8.33332986e-002, 3.58495998e+000,
          4.79770005e-002, 6.49999976e-002, 6.49999976e-002,
          4.02193022e+000, -3.01112998e-002, 8.33332986e-002,
          8.33332986e-002, 3.58495998e+000, 3.73817012e-002,
          7.99999982e-002, 7.99999982e-002, 3.72193003e+000, 1., 1.,
          2.64705992e+000, 17., 6.79859966e-002, 3.38235016e+001,
          6.79859966e-002, 3.38235016e+001, 6.79859966e-002,
          3.38235016e+001, 1., 1., 2.64705992e+000, 17., 6.79859966e-002,
          3.38235016e+001, 6.79859966e-002, 3.38235016e+001,
          6.79859966e-002, 3.38235016e+001, 1., 1., 2.64705992e+000, 17.,
          6.79859966e-002, 3.38235016e+001, 6.79859966e-002,
          3.38235016e+001, 6.79859966e-002, 3.38235016e+001,
          9.41406012e-001, 1.93750000e+000, 2.62500000e+000,
          1.41250000e+001, 6.52906969e-002, 3.53750000e+001,
          5.87802008e-002, 3.48476982e+001, 1.69457003e-001,
          4.38125000e+001, 9.44444001e-001, 1.50000000e+000,
          2.50000000e+000, 1.41250000e+001, 7.14635029e-002,
          3.08750000e+001, 7.07776025e-002, 2.63750000e+001,
          7.76363015e-002, 7.13750000e+001, 1., 1., 2.64705992e+000, 17.,
          6.79859966e-002, 3.38235016e+001, 6.79859966e-002,
          3.38235016e+001, 6.79859966e-002, 3.38235016e+001, 1., 1.,
          2.64705992e+000, 17., 6.79859966e-002, 3.38235016e+001,
          6.79859966e-002, 3.38235016e+001, 6.79859966e-002,
          3.38235016e+001, 9.41406012e-001, 1.93750000e+000,
          2.50000000e+000, 1.41250000e+001, 7.09595978e-002,
          3.28750000e+001, 6.97638020e-002, 3.00039005e+001,
          9.00921971e-002, 7.88125000e+001, 9.39999998e-001,
          2.50000000e+000, 2.50000000e+000, 1.41250000e+001,
          7.14635029e-002, 3.08750000e+001, 7.07228035e-002,
          2.60149994e+001, 8.99820030e-002, 1.52375000e+002,
          8.75000000e-001, 3., 2.33332992e+000, 1.15333004e+001,
          7.48671964e-002, 2.96667004e+001, 7.28200972e-002,
          2.15417004e+001, 1.07620999e-001, 1.59667007e+002,
          9.44444001e-001, 1.50000000e+000, 2.50000000e+000,
          1.41250000e+001, 6.83287978e-002, 3.49375000e+001,
          6.48565963e-002, 3.40485992e+001, 9.95787978e-002,
          4.29375000e+001, 1., 1., 2.64705992e+000, 17., 6.79859966e-002,
          3.38235016e+001, 6.79859966e-002, 3.38235016e+001,
          6.79859966e-002, 3.38235016e+001, 1., 1., 2.64705992e+000, 17.,
          6.79859966e-002, 3.38235016e+001, 6.79859966e-002,
          3.38235016e+001, 6.79859966e-002, 3.38235016e+001, 18.,
          2.50000000e-001, 6.66666985e-001, 6.66666985e-001, 1.,
          3.10193005e+001, 1.07078004e+000, 1.63299000e+000,
          2.85714000e-001, 1.42857000e-001, 2.85714000e-001, 0.,
          1.42857000e-001, 0., 0., 0., 1.42857000e-001, 0., 0., 0., 0.,
          0., 0., 0., 0., 0., 0., 0., 0., 0., 0., 0., 0., 0., 0., 0., 0.,
          0., 0., 0., 0., 0., 0., 0., 4.28570986e-001, 2.85714000e-001,
          1.42857000e-001, 0., 1.42857000e-001, 0., 0., 0., 0., 0., 0.,
          0., 0., 0., 0., 0., 0., 0., 0., 0., 0., 0., 0., 0., 0., 0., 0.,
          0., 0., 0., 0., 0., 0., 0., 0., 0., 2.85714000e-001,
          1.42857000e-001, 4.28570986e-001, 0., 0., 0., 0., 0.,
          1.42857000e-001, 0., 0., 0., 0., 0., 0., 0., 0., 0., 0., 0.,
          0., 0., 0., 0., 0., 0., 0., 0., 0., 0., 0., 0., 0., 0., 0., 0.,
          2.85714000e-001, 1.42857000e-001, 2.85714000e-001,
          1.42857000e-001, 1.42857000e-001, 0., 0., 0., 0., 0.,
          4.28570986e-001, 2.85714000e-001, 1.42857000e-001,
          1.42857000e-001, 0., 0., 0., 0., 0., 0., 2.85714000e-001,
          1.42857000e-001, 4.28570986e-001, 0., 1.42857000e-001, 0., 0.,
          0., 0., 0. ]
      - [ 2048., 4.16237020e+000, 2.22028999e+001, 1.01328001e+001,
          5.65000000e+001, 9.79794025e-001, 3.42039990e+000,
          -2.47614998e-002, 3.54937986e-002, 3.54937986e-002,
          4.89214993e+000, 8.08823016e-003, 3.21361013e-002,
          3.21361013e-002, 5.04530001e+000, -1.14145996e-002,
          3.39506008e-002, 3.39506008e-002, 4.94770002e+000,
          1.48495997e-003, 3.24999988e-002, 3.24999988e-002,
          5.02193022e+000, 2.42564008e-002, 2.88462006e-002,
          2.88462006e-002, 5.20043993e+000, -3.50984000e-003,
          3.87500003e-002, 3.87500003e-002, 4.87193012e+000,
          -1.89750008e-002, 3.97923999e-002, 3.97923999e-002,
          4.73451996e+000, 1.42023005e-002, 4.12500016e-002,
          4.12500016e-002, 4.87193012e+000, -2.96172989e-003,
          3.32030989e-002, 3.32030989e-002, 4.93750000e+000,
          2.37696990e-003, 2.63999999e-002, 2.63999999e-002,
          5.32386017e+000, 4.02360000e-002, 3.66211012e-002,
          3.66211012e-002, 4.98406982e+000, 1.30158998e-002,
          3.18046995e-002, 3.18046995e-002, 5.09448004e+000,
          1.82475001e-002, 2.83333007e-002, 2.83333007e-002,
          5.31506014e+000, 9.55349028e-001, 2.11628008e+000,
          8.02326012e+000, 3.91860008e+001, 3.79400015e-001,
          1.34651003e+001, 3.75524014e-001, 1.29069996e+001,
          4.76298988e-001, 2.74186001e+001, 9.56394970e-001,
          1.69766998e+000, 7.69766998e+000, 3.91860008e+001,
          3.57598007e-001, 1.38140001e+001, 3.33373010e-001,
          1.35958996e+001, 7.45194972e-001, 1.73022995e+001,
          9.55349028e-001, 2.11628008e+000, 7.69766998e+000,
          3.91860008e+001, 3.57598007e-001, 1.38140001e+001,
          3.32792014e-001, 1.35907001e+001, 9.77752984e-001,
          1.93952999e+001, 9.56394970e-001, 1.69766998e+000,
          7.69766998e+000, 3.91860008e+001, 3.57598007e-001,
          1.38140001e+001, 3.33373010e-001, 1.35958996e+001,
          7.45194972e-001, 1.73022995e+001, 8.88889015e-001, 2.,
          6.84999990e+000, 3.12500000e+001, 3.28168005e-001,
          1.46999998e+001, 2.53475994e-001, 1.43444004e+001,
          1.00039005e+000, 1.78999996e+001, 8.82812977e-001,
          2.87500000e+000, 7.09999990e+000, 3.12500000e+001,
          3.51604998e-001, 1.43249998e+001, 2.94802010e-001,
          1.35984001e+001, 1.26046002e+000, 2.59500008e+001,
          9.31429029e-001, 2.71428990e+000, 7.76189995e+000,
          3.64286003e+001, 3.65451008e-001, 1.32856998e+001,
          3.39419007e-001, 1.22342997e+001, 1.01624000e+000,
          3.95713997e+001, 9.56394970e-001, 1.69766998e+000,
          8.16279030e+000, 3.91860008e+001, 3.80207986e-001, 13.,
          3.77180010e-001, 1.20188999e+001, 4.28656995e-001,
          2.86977005e+001, 9.78182018e-001, 1.54544997e+000,
          8.09090996e+000, 4.20455017e+001, 3.72197986e-001,
          1.35227003e+001, 3.69774014e-001, 1.33263998e+001,
          4.32803988e-001, 1.84318008e+001, 9.56394970e-001,
          1.69766998e+000, 7.69766998e+000, 3.91860008e+001,
          3.57598007e-001, 1.38140001e+001, 3.33373010e-001,
          1.35958996e+001, 7.45194972e-001, 1.73022995e+001,
          9.58656013e-001, 1.37208998e+000, 7.69766998e+000,
          3.91860008e+001, 3.57598007e-001, 1.38140001e+001,
          3.34628999e-001, 1.36071997e+001, 5.64315975e-001,
          1.56744003e+001, 9.56394970e-001, 1.69766998e+000,
          7.60465002e+000, 3.91860008e+001, 3.36926013e-001, 14.,
          2.93321013e-001, 1.39563999e+001, 1.03460002e+000,
          1.46976995e+001, 7.46032000e-001, 3.28571010e+000,
          6.48571014e+000, 2.07143002e+001, 3.66365999e-001,
          1.38857002e+001, 2.73286998e-001, 1.08888998e+001,
          1.20407999e+000, 4.08571014e+001, 60., 6.66666985e-001,
          1.25000000e+000, 2., 1.26490998e+000, 7.49291992e+001,
          9.89162028e-001, 1.36931002e+000, 9.37500000e-002,
          1.25000000e-001, 2.81250000e-001, 0., 4.68750000e-001, 0., 0.,
          0., 3.12500000e-002, 0., 0., 0., 0., 0., 0., 0., 0., 0., 0.,
          0., 0., 0., 0., 0., 0., 0., 0., 0., 0., 0., 0., 0., 0., 0., 0.,
          0., 1.56250000e-001, 1.56250000e-001, 1.56250000e-001, 0.,
          5.31250000e-001, 0., 0., 0., 0., 0., 0., 0., 0., 0., 0., 0.,
          0., 0., 0., 0., 0., 0., 0., 0., 0., 0., 0., 0., 0., 0., 0., 0.,
          0., 0., 0., 0., 9.37500000e-002, 6.25000000e-002,
          1.87500000e-001, 0., 3.75000000e-001, 0., 0., 0.,
          2.81250000e-001, 0., 0., 0., 0., 0., 0., 0., 0., 0., 0., 0.,
          0., 0., 0., 0., 0., 0., 0., 0., 0., 0., 0., 0., 0., 0., 0., 0.,
          9.37500000e-002, 1.25000000e-001, 2.81250000e-001,
          4.68750000e-001, 3.12500000e-002, 0., 0., 0., 0., 0.,
          1.56250000e-001, 1.56250000e-001, 1.56250000e-001,
          5.31250000e-001, 0., 0., 0., 0., 0., 0., 9.37500000e-002,
          6.25000000e-002, 1.87500000e-001, 3.75000000e-001,
          2.81250000e-001, 0., 0., 0., 0., 0. ]
      - [ 3.54943984e+004, 2.15108007e-001, 1.00038996e+001,
          4.27504015e+000, 5.64418983e+001, 6.28759027e-001,
          2.67240000e+000, 9.11417976e-002, 8.92158970e-002,
          8.92158970e-002, 5.07151985e+000, 9.89049971e-002,
          9.28398967e-002, 9.28398967e-002, 4.96913004e+000,
          8.23441967e-002, 8.36851969e-002, 8.36851969e-002,
          5.18126011e+000, 1.03827000e-001, 1.02128997e-001,
          1.02128997e-001, 4.85518980e+000, 1.16958000e-001,
          1.17645003e-001, 1.17645003e-001, 4.56364012e+000,
          1.01487003e-001, 1.01850003e-001, 1.01850003e-001,
          4.87738991e+000, 8.45505968e-002, 8.44096020e-002,
          8.44096020e-002, 5.15744019e+000, 9.88316983e-002,
          9.17140022e-002, 9.17140022e-002, 4.98032999e+000,
          8.84978026e-002, 8.64368975e-002, 8.64368975e-002,
          5.12388992e+000, 1.01322003e-001, 1.00573003e-001,
          1.00573003e-001, 4.87225008e+000, 1.12905003e-001,
          1.10894002e-001, 1.10894002e-001, 4.63800001e+000,
          9.43337977e-002, 9.31930989e-002, 9.31930989e-002,
          5.00563002e+000, 1.16618000e-001, 1.22559004e-001,
          1.22559004e-001, 4.54360008e+000, 7.23703980e-001,
          1.27005997e+001, 3.44369995e+002, 9.91122986e+002,
          3.90756011e-001, 1.31198997e+001, 2.33651996e-001,
          1.10995998e+001, 7.71528006e+000, 8.15858002e+001,
          7.16165006e-001, 1.03965998e+001, 2.92515991e+002,
          8.64822998e+002, 3.44164014e-001, 1.39147997e+001,
          1.88001007e-001, 1.16947002e+001, 6.04802990e+000,
          7.51327972e+001, 7.40601003e-001, 1.14399004e+001,
          3.51545013e+002, 1.06955005e+003, 3.82005006e-001,
          1.32442999e+001, 2.17519000e-001, 1.16843996e+001,
          7.59818983e+000, 6.22193985e+001, 7.09948003e-001,
          9.95563030e+000, 2.75561005e+002, 8.35336975e+002,
          3.37446988e-001, 1.42720003e+001, 1.92166999e-001,
          1.17062998e+001, 5.30076981e+000, 7.94192963e+001,
          6.33150995e-001, 1.30635996e+001, 2.27860992e+002,
          5.59294006e+002, 2.94452995e-001, 1.51976004e+001,
          1.35175005e-001, 1.14955997e+001, 7.61691999e+000,
          9.41589966e+001, 7.14888990e-001, 9.82100964e+000,
          2.64946014e+002, 8.36607971e+002, 3.22703004e-001,
          1.47314997e+001, 1.73959002e-001, 1.23051004e+001,
          5.64397001e+000, 6.94882965e+001, 7.18761981e-001,
          1.25934000e+001, 3.68864990e+002, 1.03981006e+003,
          3.91440988e-001, 1.27903004e+001, 2.11564004e-001,
          1.09967003e+001, 8.48421001e+000, 7.16428986e+001,
          6.87376976e-001, 1.08957996e+001, 3.04845001e+002,
          8.46010010e+002, 3.52694005e-001, 1.37673998e+001,
          1.74225003e-001, 1.13856001e+001, 6.75539017e+000,
          7.27679977e+001, 7.02575982e-001, 1.35841999e+001,
          3.48704987e+002, 9.58971008e+002, 3.88664007e-001,
          1.30262003e+001, 2.14056000e-001, 1.08865995e+001,
          8.60202980e+000, 8.18066025e+001, 6.85328007e-001,
          1.12883997e+001, 2.47356003e+002, 7.32536987e+002,
          3.56698006e-001, 1.49986000e+001, 1.90195993e-001,
          1.24473000e+001, 6.42379999e+000, 8.48137970e+001,
          5.76038003e-001, 1.57103004e+001, 2.10983002e+002,
          4.66321014e+002, 3.35970014e-001, 1.53646002e+001,
          1.09641001e-001, 1.16287003e+001, 9.75166035e+000,
          1.03264000e+002, 7.16601014e-001, 1.04315004e+001,
          2.82253998e+002, 8.63221985e+002, 3.57441008e-001,
          1.42852001e+001, 1.93232000e-001, 1.21244001e+001,
          6.46491003e+000, 6.62801971e+001, 6.31053984e-001,
          1.29194002e+001, 2.00998001e+002, 5.34135010e+002,
          3.03478003e-001, 1.62292004e+001, 1.29840001e-001,
          1.28608999e+001, 7.19602013e+000, 8.90292969e+001, 3570.,
          1.62500000e+001, 1.86667004e+001, 24., 1.13389003e+000,
          1.25431995e+003, 9.00574028e-001, 1.07177997e+000,
          6.27529994e-002, 8.70444998e-002, 1.35628000e-001,
          4.04857984e-003, 2.46963993e-001, 0., 4.04857984e-003,
          4.04857984e-003, 3.01618993e-001, 2.02428992e-003, 0., 0., 0.,
          2.02428992e-003, 4.04857984e-003, 2.02428992e-003,
          1.09311998e-001, 0., 0., 0., 0., 0., 2.02428992e-003, 0.,
          2.02428992e-003, 0., 0., 1.41700003e-002, 0., 0., 0., 0.,
          2.02428992e-003, 0., 1.21456999e-002, 2.02428992e-003,
          7.69231021e-002, 6.27529994e-002, 9.10931006e-002,
          6.07286999e-003, 2.53035992e-001, 8.09716992e-003,
          6.07286999e-003, 4.04857984e-003, 2.61133999e-001,
          8.09716992e-003, 2.02428992e-003, 0., 4.04857984e-003,
          4.04857984e-003, 6.07286999e-003, 0., 1.19433001e-001, 0.,
          6.07286999e-003, 0., 0., 2.02428992e-003, 2.02428992e-003, 0.,
          4.04857984e-003, 2.02428992e-003, 0., 4.45344001e-002, 0., 0.,
          0., 0., 0., 0., 1.41700003e-002, 1.21456999e-002,
          5.87044992e-002, 6.68016002e-002, 9.31174010e-002,
          4.04857984e-003, 2.75303990e-001, 4.04857984e-003,
          4.04857984e-003, 4.04857984e-003, 3.25910985e-001,
          2.02428992e-003, 2.02428992e-003, 0., 4.04857984e-003,
          2.02428992e-003, 4.04857984e-003, 2.02428992e-003,
          1.05263002e-001, 0., 0., 0., 0., 0., 0., 0., 0., 0.,
          2.02428992e-003, 1.61943007e-002, 0., 0., 0., 0.,
          2.02428992e-003, 2.02428992e-003, 1.41700003e-002,
          6.07286999e-003, 6.27529994e-002, 8.70444998e-002,
          1.35628000e-001, 2.46963993e-001, 3.01618993e-001,
          1.09311998e-001, 1.41700003e-002, 1.21456999e-002,
          2.02428992e-003, 2.83400994e-002, 7.69231021e-002,
          6.27529994e-002, 9.10931006e-002, 2.53035992e-001,
          2.61133999e-001, 1.19433001e-001, 4.45344001e-002,
          1.41700003e-002, 1.21456999e-002, 6.47772998e-002,
          5.87044992e-002, 6.68016002e-002, 9.31174010e-002,
          2.75303990e-001, 3.25910985e-001, 1.05263002e-001,
          1.61943007e-002, 1.41700003e-002, 6.07286999e-003,
          3.84614989e-002 ]
      - [ 2560., 3.97370005e+000, 8.02740002e+000, 5.54061985e+000,
          7.30693970e+001, 4.30620015e-001, 1.96179998e+000,
          -1.29012996e-002, 3.33333015e-002, 3.33333015e-002,
          4.90688992e+000, 4.69519012e-002, 4.15511988e-002,
          4.15511988e-002, 4.73450994e+000, -8.16349033e-003,
          3.77778001e-002, 3.77778001e-002, 4.77356005e+000,
          4.48455997e-002, 2.90859006e-002, 2.90859006e-002,
          5.14266014e+000, 7.73148015e-002, 3.30813006e-002,
          3.30813006e-002, 5.00182009e+000, 1.31301004e-002,
          3.39506008e-002, 3.39506008e-002, 4.94770002e+000,
          -1.87176000e-003, 4.22222018e-002, 4.22222018e-002,
          4.64022017e+000, 2.87964009e-002, 3.39506008e-002,
          3.39506008e-002, 4.94770002e+000, -3.41536999e-002,
          5.61223999e-002, 5.61223999e-002, 4.32486010e+000,
          -2.01491006e-002, 2.25922000e-002, 2.25922000e-002,
          5.54763985e+000, 4.98625003e-002, 2.41052005e-002,
          2.41052005e-002, 5.53378010e+000, 6.35599997e-003,
          2.27777995e-002, 2.27777995e-002, 5.54021978e+000,
          4.42937985e-002, 2.59313006e-002, 2.59313006e-002,
          5.39148998e+000, 1., 1., 6.08333015e+000, 48., 1.36024997e-001,
          2.81457996e+001, 1.36024997e-001, 2.81457996e+001,
          1.36024997e-001, 2.81457996e+001, 9.14772987e-001,
          2.36364007e+000, 5.86363983e+000, 3.67272987e+001,
          1.41608998e-001, 2.62045002e+001, 1.35251999e-001,
          2.19857998e+001, 2.43330002e-001, 9.37044983e+001,
          9.79574025e-001, 1.51064003e+000, 5.97872019e+000,
          4.50425987e+001, 1.38068005e-001, 2.82127991e+001,
          1.37251005e-001, 2.77021008e+001, 1.58493996e-001,
          4.09786987e+001, 9.37500000e-001, 2., 5.88888979e+000,
          3.94000015e+001, 1.38916001e-001, 2.67110996e+001,
          1.33125007e-001, 2.36068993e+001, 2.31573001e-001,
          7.63778000e+001, 9.40741003e-001, 1.53332996e+000,
          5.66666985e+000, 3.94000015e+001, 1.19012997e-001,
          2.94444008e+001, 9.58305001e-002, 2.89309006e+001,
          3.27654988e-001, 3.40667000e+001, 9.59239006e-001,
          1.65216994e+000, 5.78260994e+000, 4.21739006e+001,
          1.39255002e-001, 2.74130001e+001, 1.36739001e-001,
          2.55788002e+001, 1.79513007e-001, 5.67608986e+001,
          9.79574025e-001, 1.51064003e+000, 5.85105991e+000,
          4.50425987e+001, 1.36555001e-001, 2.85531998e+001,
          1.34285003e-001, 2.83694000e+001, 1.93293005e-001,
          3.31488991e+001, 9.59239006e-001, 1.65216994e+000,
          5.82608986e+000, 4.21739006e+001, 1.40312001e-001,
          2.72609005e+001, 1.38787001e-001, 2.52840004e+001,
          1.64718002e-001, 5.88913002e+001, 1., 1., 6.08333015e+000, 48.,
          1.36024997e-001, 2.81457996e+001, 1.36024997e-001,
          2.81457996e+001, 1.36024997e-001, 2.81457996e+001,
          9.37500000e-001, 2., 5.75555992e+000, 3.94000015e+001,
          1.42075002e-001, 2.62222004e+001, 1.39246002e-001,
          2.26597004e+001, 1.87343001e-001, 8.32221985e+001,
          9.37500000e-001, 2.15909004e+000, 5.36363983e+000,
          3.83181992e+001, 1.41604006e-001, 2.94090996e+001,
          1.36715993e-001, 2.85505009e+001, 2.22885996e-001,
          4.66818008e+001, 8.66070986e-001, 3.14285994e+000,
          5.38094997e+000, 3.17143002e+001, 1.44410998e-001,
          2.60951996e+001, 1.34056002e-001, 2.04032993e+001,
          3.10099989e-001, 1.17167000e+002, 9.40741003e-001,
          1.53332996e+000, 5.66666985e+000, 3.94000015e+001,
          1.40845999e-001, 2.87110996e+001, 1.37070999e-001,
          2.75457001e+001, 1.74822003e-001, 3.92000008e+001, 50.,
          2.50000000e-001, 2., 2., 1., 7.12227020e+001, 9.21536028e-001,
          2.82842994e+000, 1.50000006e-001, 2.00000003e-001,
          1.00000001e-001, 0., 5.24999976e-001, 0., 0., 0.,
          2.50000004e-002, 0., 0., 0., 0., 0., 0., 0., 0., 0., 0., 0.,
          0., 0., 0., 0., 0., 0., 0., 0., 0., 0., 0., 0., 0., 0., 0., 0.,
          1.50000006e-001, 1.50000006e-001, 2.50000000e-001, 0.,
          3.49999994e-001, 0., 0., 0., 1.00000001e-001, 0., 0., 0., 0.,
          0., 0., 0., 0., 0., 0., 0., 0., 0., 0., 0., 0., 0., 0., 0., 0.,
          0., 0., 0., 0., 0., 0., 0., 5.00000007e-002, 5.00000007e-002,
          1.00000001e-001, 0., 5.74999988e-001, 0., 0., 0.,
          2.24999994e-001, 0., 0., 0., 0., 0., 0., 0., 0., 0., 0., 0.,
          0., 0., 0., 0., 0., 0., 0., 0., 0., 0., 0., 0., 0., 0., 0., 0.,
          1.50000006e-001, 2.00000003e-001, 1.00000001e-001,
          5.24999976e-001, 2.50000004e-002, 0., 0., 0., 0., 0.,
          1.50000006e-001, 1.50000006e-001, 2.50000000e-001,
          3.49999994e-001, 1.00000001e-001, 0., 0., 0., 0., 0.,
          5.00000007e-002, 5.00000007e-002, 1.00000001e-001,
          5.74999988e-001, 2.24999994e-001, 0., 0., 0., 0., 0. ]
      - [ 3377., 1.11345994e+000, 4.96423006e+000, 2.89705992e+000,
          5.30684013e+001, 1.74431995e-001, 2.33013010e+000,
          -1.01805002e-004, 1.99999996e-002, 1.99999996e-002,
          5.78418016e+000, 3.16763006e-004, 1.69271007e-002,
          1.69271007e-002, 6.01183987e+000, -2.37985998e-002,
          1.78124998e-002, 1.78124998e-002, 5.89693022e+000,
          8.34287982e-003, 1.84000004e-002, 1.84000004e-002,
          5.90876007e+000, 2.02159006e-002, 1.68054998e-002,
          1.68054998e-002, 6.07739019e+000, -1.75459005e-004,
          1.68680009e-002, 1.68680009e-002, 6.01246977e+000,
          -7.89823011e-004, 1.78571008e-002, 1.78571008e-002,
          5.92195988e+000, 8.78528040e-003, 1.77010000e-002,
          1.77010000e-002, 5.95625019e+000, -7.55209988e-003,
          2.21874993e-002, 2.21874993e-002, 5.67806005e+000,
          5.78913987e-002, 1.78359002e-002, 1.78359002e-002,
          5.90091991e+000, 7.24593997e-002, 1.83898993e-002,
          1.83898993e-002, 5.95667982e+000, 3.06720994e-002,
          1.58000998e-002, 1.58000998e-002, 6.18323994e+000,
          6.06965981e-002, 1.75455008e-002, 1.75455008e-002,
          6.07324982e+000, 9.57801998e-001, 2.05493999e+000,
          9.68132019e+000, 8.33516006e+001, 1.70328006e-001,
          3.46153984e+001, 1.64175004e-001, 3.42883987e+001,
          3.24175000e-001, 4.27911987e+001, 9.47916985e-001,
          1.83333004e+000, 9.44443989e+000, 8.05556030e+001,
          1.75157994e-001, 3.41666985e+001, 1.71835005e-001,
          3.30625000e+001, 2.28328004e-001, 5.18333015e+001,
          9.79354978e-001, 1.51612997e+000, 9.86021996e+000,
          8.90859985e+001, 1.71070993e-001, 3.39355011e+001,
          1.69278994e-001, 3.36773987e+001, 2.15874001e-001,
          4.03871002e+001, 9.90027010e-001, 1.15956998e+000,
          1.01489000e+001, 9.20213013e+001, 1.70992002e-001,
          3.27765999e+001, 1.70892000e-001, 3.17793007e+001,
          1.72588006e-001, 4.87340012e+001, 9.36782002e-001,
          2.17241001e+000, 9.48276043e+000, 7.56436996e+001,
          1.58065006e-001, 3.39425011e+001, 1.43646002e-001,
          3.22149010e+001, 5.94268024e-001, 6.91034012e+001,
          9.90027010e-001, 1.15956998e+000, 1.00213003e+001,
          9.20213013e+001, 1.70433000e-001, 3.36702003e+001,
          1.69809997e-001, 3.35106010e+001, 1.80407003e-001,
          3.62234001e+001, 9.89786983e-001, 1.25531995e+000,
          1.01702003e+001, 9.20213013e+001, 1.70802996e-001,
          3.34574013e+001, 1.70518994e-001, 3.30898018e+001,
          1.77894995e-001, 4.26488991e+001, 9.57812011e-001,
          2.20000005e+000, 9.64443970e+000, 8.22889023e+001,
          1.65748999e-001, 3.38889008e+001, 1.54223993e-001,
          3.26825981e+001, 3.82968009e-001, 6.15889015e+001, 1., 1.,
          1.02210999e+001, 95., 1.69296995e-001, 3.34841995e+001,
          1.69296995e-001, 3.34841995e+001, 1.69296995e-001,
          3.34841995e+001, 9.36797976e-001, 2.01124001e+000,
          9.35955048e+000, 7.78089981e+001, 1.63900003e-001,
          3.41011009e+001, 1.48140997e-001, 3.25632019e+001,
          4.16054010e-001, 5.87079010e+001, 9.04901981e-001,
          2.16471004e+000, 9.02353001e+000, 6.87175980e+001,
          1.45388007e-001, 3.51293983e+001, 1.07023001e-001,
          3.32417984e+001, 5.09972990e-001, 5.70587997e+001,
          9.47916985e-001, 1.83333004e+000, 9.84444046e+000,
          8.05556030e+001, 1.64147004e-001, 3.27888985e+001,
          1.50500998e-001, 3.03931007e+001, 3.82479995e-001,
          7.11222000e+001, 8.45440984e-001, 4.11687994e+000,
          8.40260029e+000, 5.43765984e+001, 1.90487996e-001,
          3.10389996e+001, 1.79971993e-001, 2.31609001e+001,
          4.74002004e-001, 1.42701004e+002, 108., 6.66666985e-001,
          2.91667008e+000, 2.91667008e+000, 1., 1.18054001e+002,
          9.29004014e-001, 2.09165001e+000, 1.06383003e-001,
          6.38298020e-002, 1.91488996e-001, 0., 2.97872007e-001, 0., 0.,
          0., 3.19148988e-001, 0., 0., 0., 0., 0., 0., 0.,
          2.12766007e-002, 0., 0., 0., 0., 0., 0., 0., 0., 0., 0., 0.,
          0., 0., 0., 0., 0., 0., 0., 0., 6.38298020e-002,
          6.38298020e-002, 3.19148988e-001, 0., 2.34043002e-001, 0.,
          2.12766007e-002, 0., 2.34043002e-001, 0., 0., 0.,
          2.12766007e-002, 0., 0., 0., 4.25532013e-002, 0., 0., 0., 0.,
          0., 0., 0., 0., 0., 0., 0., 0., 0., 0., 0., 0., 0., 0., 0.,
          1.06383003e-001, 6.38298020e-002, 1.48936003e-001, 0.,
          3.19148988e-001, 0., 0., 0., 2.76596010e-001, 0.,
          4.25532013e-002, 0., 0., 0., 0., 0., 4.25532013e-002, 0., 0.,
          0., 0., 0., 0., 0., 0., 0., 0., 0., 0., 0., 0., 0., 0., 0., 0.,
          0., 1.06383003e-001, 6.38298020e-002, 1.91488996e-001,
          2.97872007e-001, 3.19148988e-001, 2.12766007e-002, 0., 0., 0.,
          0., 6.38298020e-002, 6.38298020e-002, 3.19148988e-001,
          2.34043002e-001, 2.34043002e-001, 4.25532013e-002, 0., 0., 0.,
          4.25532013e-002, 1.06383003e-001, 6.38298020e-002,
          1.48936003e-001, 3.19148988e-001, 2.76596010e-001,
          4.25532013e-002, 0., 0., 0., 4.25532013e-002 ]
      - [ 2560., 3.67372006e-001, 2.69946003e+000, 1.43172002e+000,
          4.93194008e+001, 2.71762997e-001, 2.40229011e+000,
          6.87706005e-003, 2.94924993e-002, 2.94924993e-002,
          5.16229010e+000, 6.53766990e-002, 3.67036015e-002,
          3.67036015e-002, 5.02781010e+000, 6.88027963e-002,
          3.44388001e-002, 3.44388001e-002, 5.09307003e+000,
          1.39920995e-001, 4.78450991e-002, 4.78450991e-002,
          4.70918989e+000, 1.87841997e-001, 4.52000014e-002,
          4.52000014e-002, 4.81133986e+000, 1.09035000e-001,
          3.16357985e-002, 3.16357985e-002, 5.14896011e+000,
          1.13632001e-001, 3.56718004e-002, 3.56718004e-002,
          4.90091991e+000, 1.24687001e-001, 3.90625000e-002,
          3.90625000e-002, 4.99031019e+000, 4.62928005e-002,
          3.12500000e-002, 3.12500000e-002, 5.14628983e+000,
          4.02004011e-002, 2.56789997e-002, 2.56789997e-002,
          5.47508001e+000, 1.23801999e-001, 3.22581008e-002,
          3.22581008e-002, 5.20252991e+000, 6.82063997e-002,
          2.85916999e-002, 2.85916999e-002, 5.32215977e+000,
          1.25409007e-001, 3.50474007e-002, 3.50474007e-002,
          5.21960020e+000, 9.76000011e-001, 1.60000002e+000,
          1.16999998e+001, 7.60999985e+001, 5.29164001e-002,
          3.42999992e+001, 5.22488989e-002, 3.32319984e+001,
          6.96038976e-002, 61., 9.51923013e-001, 1.76923001e+000,
          1.10768995e+001, 7.04103012e+001, 5.11116982e-002,
          3.54487000e+001, 4.74792011e-002, 3.46314011e+001,
          1.09231003e-001, 4.85256004e+001, 9.24211025e-001,
          2.89474010e+000, 1.07631998e+001, 6.49474030e+001,
          5.11758998e-002, 3.52237015e+001, 4.61287014e-002,
          3.32532005e+001, 1.77355006e-001, 8.44868011e+001,
          9.10683990e-001, 3.06756997e+000, 1.08107996e+001,
          6.11622009e+001, 5.15251011e-002, 3.45405006e+001,
          4.68309000e-002, 3.11396008e+001, 1.97577000e-001,
          9.47026978e+001, 7.35405028e-001, 6.05084991e+000,
          7.91524982e+000, 3.25592995e+001, 4.96671982e-002,
          3.80847015e+001, 3.48653011e-002, 3.07716999e+001,
          3.67523998e-001, 1.53287994e+002, 9.12500024e-001,
          2.40000010e+000, 1.07867002e+001, 6.23067017e+001,
          5.09934016e-002, 3.54132996e+001, 4.51880991e-002,
          3.32008018e+001, 1.43878996e-001, 7.08133011e+001,
          9.24211025e-001, 2.89474010e+000, 1.09474001e+001,
          6.49474030e+001, 5.21793999e-002, 3.43946991e+001,
          4.80954982e-002, 3.16284008e+001, 1.54275000e-001,
          1.03553001e+002, 8.96618009e-001, 3.30136991e+000,
          1.02602997e+001, 5.85615997e+001, 5.29345982e-002,
          3.53835983e+001, 4.79683988e-002, 3.24780006e+001,
          1.58285007e-001, 9.80548019e+001, 9.63544011e-001,
          1.91138995e+000, 1.16582003e+001, 7.32278976e+001,
          5.36261015e-002, 3.33544006e+001, 5.29884994e-002,
          3.09484005e+001, 6.95661008e-002, 9.35063019e+001,
          9.76562977e-001, 1.37500000e+000, 1.14499998e+001,
          7.60999985e+001, 5.14415018e-002, 3.50999985e+001,
          4.94070016e-002, 3.48069992e+001, 8.39935988e-002,
          3.97874985e+001, 9.01445985e-001, 2.24657989e+000,
          1.04246998e+001, 5.85615997e+001, 5.16562983e-002,
          3.48493004e+001, 4.57899012e-002, 3.16061993e+001,
          1.18836999e-001, 7.30273972e+001, 8.96618009e-001,
          3.30136991e+000, 1.02054996e+001, 5.85615997e+001,
          5.15953004e-002, 3.54384003e+001, 4.53734994e-002,
          3.25840988e+001, 1.77036002e-001, 9.72876968e+001,
          8.93060029e-001, 4.02898979e+000, 1.03332996e+001,
          5.43623009e+001, 4.56751995e-002, 3.70144997e+001,
          3.67761999e-002, 3.42803001e+001, 3.23677003e-001,
          9.04927979e+001, 90., 6.66666985e-001, 2., 2.91667008e+000,
          1.20761001e+000, 1.02444000e+002, 9.48040009e-001,
          1.73204994e+000, 1.50000006e-001, 5.00000007e-002,
          2.24999994e-001, 0., 4.49999988e-001, 0., 0., 0.,
          1.00000001e-001, 0., 0., 0., 0., 0., 0., 0., 2.50000004e-002,
          0., 0., 0., 0., 0., 0., 0., 0., 0., 0., 0., 0., 0., 0., 0., 0.,
          0., 0., 0., 1.00000001e-001, 1.00000001e-001, 2.24999994e-001,
          0., 4.00000006e-001, 0., 0., 0., 1.74999997e-001, 0., 0., 0.,
          0., 0., 0., 0., 0., 0., 0., 0., 0., 0., 0., 0., 0., 0., 0., 0.,
          0., 0., 0., 0., 0., 0., 0., 0., 7.50000030e-002,
          7.50000030e-002, 1.74999997e-001, 0., 4.25000012e-001, 0., 0.,
          0., 2.50000000e-001, 0., 0., 0., 0., 0., 0., 0., 0., 0., 0.,
          0., 0., 0., 0., 0., 0., 0., 0., 0., 0., 0., 0., 0., 0., 0., 0.,
          0., 1.50000006e-001, 5.00000007e-002, 2.24999994e-001,
          4.49999988e-001, 1.00000001e-001, 2.50000004e-002, 0., 0., 0.,
          0., 1.00000001e-001, 1.00000001e-001, 2.24999994e-001,
          4.00000006e-001, 1.74999997e-001, 0., 0., 0., 0., 0.,
          7.50000030e-002, 7.50000030e-002, 1.74999997e-001,
          4.25000012e-001, 2.50000000e-001, 0., 0., 0., 0., 0. ]
   decision_functions:
      -
         sv_count: 1
         rho: -3.6509080952358772e+000
         alpha: [ 1. ]
